{"learner":{"attributes":{"scikit_learn":"{\"_estimator_type\": \"regressor\"}"},"feature_names":[],"feature_types":[],"gradient_booster":{"model":{"cats":{"enc":[],"feature_segments":[],"sorted_idx":[]},"gbtree_model_param":{"num_parallel_tree":"1","num_trees":"406"},"iteration_indptr":[0,1,2,3,4,5,6,7,8,9,10,11,12,13,14,15,16,17,18,19,20,21,22,23,24,25,26,27,28,29,30,31,32,33,34,35,36,37,38,39,40,41,42,43,44,45,46,47,48,49,50,51,52,53,54,55,56,57,58,59,60,61,62,63,64,65,66,67,68,69,70,71,72,73,74,75,76,77,78,79,80,81,82,83,84,85,86,87,88,89,90,91,92,93,94,95,96,97,98,99,100,101,102,103,104,105,106,107,108,109,110,111,112,113,114,115,116,117,118,119,120,121,122,123,124,125,126,127,128,129,130,131,132,133,134,135,136,137,138,139,140,141,142,143,144,145,146,147,148,149,150,151,152,153,154,155,156,157,158,159,160,161,162,163,164,165,166,167,168,169,170,171,172,173,174,175,176,177,178,179,180,181,182,183,184,185,186,187,188,189,190,191,192,193,194,195,196,197,198,199,200,201,202,203,204,205,206,207,208,209,210,211,212,213,214,215,216,217,218,219,220,221,222,223,224,225,226,227,228,229,230,231,232,233,234,235,236,237,238,239,240,241,242,243,244,245,246,247,248,249,250,251,252,253,254,255,256,257,258,259,260,261,262,263,264,265,266,267,268,269,270,271,272,273,274,275,276,277,278,279,280,281,282,283,284,285,286,287,288,289,290,291,292,293,294,295,296,297,298,299,300,301,302,303,304,305,306,307,308,309,310,311,312,313,314,315,316,317,318,319,320,321,322,323,324,325,326,327,328,329,330,331,332,333,334,335,336,337,338,339,340,341,342,343,344,345,346,347,348,349,350,351,352,353,354,355,356,357,358,359,360,361,362,363,364,365,366,367,368,369,370,371,372,373,374,375,376,377,378,379,380,381,382,383,384,385,386,387,388,389,390,391,392,393,394,395,396,397,398,399,400,401,402,403,404,405,406],"tree_info":[0,0,0,0,0,0,0,0,0,0,0,0,0,0,0,0,0,0,0,0,0,0,0,0,0,0,0,0,0,0,0,0,0,0,0,0,0,0,0,0,0,0,0,0,0,0,0,0,0,0,0,0,0,0,0,0,0,0,0,0,0,0,0,0,0,0,0,0,0,0,0,0,0,0,0,0,0,0,0,0,0,0,0,0,0,0,0,0,0,0,0,0,0,0,0,0,0,0,0,0,0,0,0,0,0,0,0,0,0,0,0,0,0,0,0,0,0,0,0,0,0,0,0,0,0,0,0,0,0,0,0,0,0,0,0,0,0,0,0,0,0,0,0,0,0,0,0,0,0,0,0,0,0,0,0,0,0,0,0,0,0,0,0,0,0,0,0,0,0,0,0,0,0,0,0,0,0,0,0,0,0,0,0,0,0,0,0,0,0,0,0,0,0,0,0,0,0,0,0,0,0,0,0,0,0,0,0,0,0,0,0,0,0,0,0,0,0,0,0,0,0,0,0,0,0,0,0,0,0,0,0,0,0,0,0,0,0,0,0,0,0,0,0,0,0,0,0,0,0,0,0,0,0,0,0,0,0,0,0,0,0,0,0,0,0,0,0,0,0,0,0,0,0,0,0,0,0,0,0,0,0,0,0,0,0,0,0,0,0,0,0,0,0,0,0,0,0,0,0,0,0,0,0,0,0,0,0,0,0,0,0,0,0,0,0,0,0,0,0,0,0,0,0,0,0,0,0,0,0,0,0,0,0,0,0,0,0,0,0,0,0,0,0,0,0,0,0,0,0,0,0,0,0,0,0,0,0,0,0,0,0,0,0,0,0,0,0,0,0,0,0,0,0,0,0,0,0,0,0,0,0,0,0,0,0,0,0,0,0,0,0,0,0,0,0,0,0,0,0,0,0,0,0,0,0,0],"trees":[{"base_weights":[1.9053401E-1,1.8807335E1,-5.4327625E1,2.8049433E1,-3.5721822E0,-3.451512E1,-6.9412994E1,2.9145231E1,-1.0653544E1,2.2891018E1,-1.1129798E1,-1.9704805E1,-4.5350883E1,-4.320337E0,-5.621094E0,2.7941504E0,2.583217E1,6.189042E0,-2.0263924E1,2.4744984E1,-1.0110231E1,3.189883E0,-2.0338745E1,-3.0102253E1,-8.592805E0,-4.0860638E1,-4.2228923E0,2.0587032E0,8.8866365E-1,1.1443624E0,-2.4816494E-1,-2.0815487E0,-6.636288E-1,2.1683056E0,1.1103147E0,9.975702E-2,-1.1098144E0,5.1998454E-1,-1.5224638E0,-8.0724275E-1,-2.143609E0,-1.5434595E0,-2.5947697E0,-1.725503E-1,-2.1034894E0,-2.2417879E-1,-3.0679421E0],"categories":[],"categories_nodes":[],"categories_segments":[],"categories_sizes":[],"default_left":[0,0,0,0,0,0,0,0,0,0,0,0,0,0,0,0,0,0,0,0,0,0,0,0,0,0,0,0,0,0,0,0,0,0,0,0,0,0,0,0,0,0,0,0,0,0,0],"id":0,"left_children":[1,3,5,7,9,11,13,15,17,19,21,23,25,-1,-1,-1,27,29,31,33,35,37,39,41,43,45,-1,-1,-1,-1,-1,-1,-1,-1,-1,-1,-1,-1,-1,-1,-1,-1,-1,-1,-1,-1,-1],"loss_changes":[1.2825301E7,1.9492672E6,9.3828E5,2.857745E5,5.54779E5,2.1759875E5,8.6882E4,1.740585E5,3.2068182E4,4.014122E4,2.8475794E5,6.828445E4,1.9567E4,0E0,0E0,0E0,1.2257475E5,7.2546475E3,8.496031E3,2.1549344E4,2.4009414E3,7.861034E4,1.0329031E5,7.1722812E3,3.7725727E4,1.07421875E4,0E0,0E0,0E0,0E0,0E0,0E0,0E0,0E0,0E0,0E0,0E0,0E0,0E0,0E0,0E0,0E0,0E0,0E0,0E0,0E0,0E0],"parents":[2147483647,0,0,1,1,2,2,3,3,4,4,5,5,6,6,7,7,8,8,9,9,10,10,11,11,12,12,16,16,17,17,18,18,19,19,20,20,21,21,22,22,23,23,24,24,25,25],"right_children":[2,4,6,8,10,12,14,16,18,20,22,24,26,-1,-1,-1,28,30,32,34,36,38,40,42,44,46,-1,-1,-1,-1,-1,-1,-1,-1,-1,-1,-1,-1,-1,-1,-1,-1,-1,-1,-1,-1,-1],"split_conditions":[1.413222E3,1.18661E2,4.7812E1,9.078E3,4.737E1,6.8396E0,4.7926E1,5.820653E-1,1.402964E3,8.16062E3,4.607E0,5.52862E2,9.09683E3,-4.320337E0,-5.621094E0,2.7941504E0,1.41028E3,8.15834E3,5.53724E2,1.402346E3,9.08622E3,9.07612E3,6.42682E2,4.7726E1,8.15002E3,6.42604E2,-4.2228923E0,2.0587032E0,8.8866365E-1,1.1443624E0,-2.4816494E-1,-2.0815487E0,-6.636288E-1,2.1683056E0,1.1103147E0,9.975702E-2,-1.1098144E0,5.1998454E-1,-1.5224638E0,-8.0724275E-1,-2.143609E0,-1.5434595E0,-2.5947697E0,-1.725503E-1,-2.1034894E0,-2.2417879E-1,-3.0679421E0],"split_indices":[30,43,36,11,36,42,36,44,30,16,42,33,11,0,0,0,30,16,33,30,11,11,24,36,16,24,0,0,0,0,0,0,0,0,0,0,0,0,0,0,0,0,0,0,0,0,0],"split_type":[0,0,0,0,0,0,0,0,0,0,0,0,0,0,0,0,0,0,0,0,0,0,0,0,0,0,0,0,0,0,0,0,0,0,0,0,0,0,0,0,0,0,0,0,0,0,0],"sum_hessian":[1.2617E4,9.41E3,3.207E3,6.658E3,2.752E3,1.4E3,1.807E3,6.477E3,1.81E2,6.07E2,2.145E3,6.03E2,7.97E2,6.94E2,1.113E3,1.783E3,4.694E3,6.7E1,1.14E2,5.77E2,3E1,8.42E2,1.303E3,3.03E2,3E2,6.06E2,1.91E2,4.111E3,5.83E2,3.1E1,3.6E1,5.9E1,5.5E1,3.82E2,1.95E2,1.1E1,1.9E1,7.31E2,1.11E2,6.3E2,6.73E2,1.22E2,1.81E2,2.36E2,6.4E1,9E0,5.97E2],"tree_param":{"num_deleted":"0","num_feature":"45","num_nodes":"47","size_leaf_vector":"1"}},{"base_weights":[-2.3253216E-1,1.7494225E1,-5.026258E1,2.471853E1,-8.134393E0,-3.219406E1,-6.404652E1,2.574999E1,-1.4649504E1,1.468773E1,-1.7377037E1,-1.8112894E1,-4.190315E1,-3.9747145E0,-5.1979523E0,2.9156528E1,1.7395365E1,2.3353622E0,-2.109033E1,2.8126791E1,7.0387144E0,-9.706953E0,-2.9192972E1,-4.213961E0,-2.6003542E1,-3.3879757E1,-3.6327345E0,2.5803149E0,1.9350125E0,2.113292E0,9.4857365E-1,5.429227E-1,-5.0876784E-1,-1.769326E0,-2.6941377E-1,3.2402828E-1,2.138699E0,9.981531E-1,2.0844975E-2,-3.6914852E-1,-2.0753837E0,-1.1425264E0,-2.4410825E0,8.863907E-1,-8.91985E-1,-2.2660391E0,-1.0498016E0,-1.34779E-1,-2.5888135E0],"categories":[],"categories_nodes":[],"categories_segments":[],"categories_sizes":[],"default_left":[0,0,0,0,0,0,0,0,0,0,0,0,0,0,0,0,0,0,0,0,0,0,0,0,0,0,0,0,0,0,0,0,0,0,0,0,0,0,0,0,0,0,0,0,0,0,0,0,0],"id":1,"left_children":[1,3,5,7,9,11,13,15,17,19,21,23,25,-1,-1,27,29,31,33,35,37,39,41,43,45,47,-1,-1,-1,-1,-1,-1,-1,-1,-1,-1,-1,-1,-1,-1,-1,-1,-1,-1,-1,-1,-1,-1,-1],"loss_changes":[1.1243035E7,1.735053E6,8.061395E5,3.002535E5,4.381801E5,1.915485E5,8.2072E4,1.977905E5,2.1551012E4,5.9830766E4,1.309095E5,6.591016E4,3.253225E4,0E0,0E0,7.83565E4,1.0313544E5,3.3109663E3,5.963285E3,2.4290781E3,1.7132277E4,7.720191E4,2.4680094E4,3.0781043E4,1.6745156E4,1.3674094E4,0E0,0E0,0E0,0E0,0E0,0E0,0E0,0E0,0E0,0E0,0E0,0E0,0E0,0E0,0E0,0E0,0E0,0E0,0E0,0E0,0E0,0E0,0E0],"parents":[2147483647,0,0,1,1,2,2,3,3,4,4,5,5,6,6,7,7,8,8,9,9,10,10,11,11,12,12,15,15,16,16,17,17,18,18,19,19,20,20,21,21,22,22,23,23,24,24,25,25],"right_children":[2,4,6,8,10,12,14,16,18,20,22,24,26,-1,-1,28,30,32,34,36,38,40,42,44,46,48,-1,-1,-1,-1,-1,-1,-1,-1,-1,-1,-1,-1,-1,-1,-1,-1,-1,-1,-1,-1,-1,-1,-1],"split_conditions":[1.413076E3,1.696388E2,1.417966E3,9.07963E3,4.7428E1,6.5874E0,4.7918E1,4.7267E1,1.587048E3,4.7322E1,7.2848E0,6.42888E2,9.6408E0,-3.9747145E0,-5.1979523E0,5.820653E-1,4.7334E1,6.42472E2,3.898E1,5.53822E2,8.1438E3,8.15436E3,1.589898E3,7.6817E1,5.21014E2,1.589982E3,-3.6327345E0,2.5803149E0,1.9350125E0,2.113292E0,9.4857365E-1,5.429227E-1,-5.0876784E-1,-1.769326E0,-2.6941377E-1,3.2402828E-1,2.138699E0,9.981531E-1,2.0844975E-2,-3.6914852E-1,-2.0753837E0,-1.1425264E0,-2.4410825E0,8.863907E-1,-8.91985E-1,-2.2660391E0,-1.0498016E0,-1.34779E-1,-2.5888135E0],"split_indices":[30,43,30,11,36,42,36,43,27,36,42,24,42,0,0,44,36,24,22,33,16,16,27,43,39,27,0,0,0,0,0,0,0,0,0,0,0,0,0,0,0,0,0,0,0,0,0,0,0],"split_type":[0,0,0,0,0,0,0,0,0,0,0,0,0,0,0,0,0,0,0,0,0,0,0,0,0,0,0,0,0,0,0,0,0,0,0,0,0,0,0,0,0,0,0,0,0,0,0,0,0],"sum_hessian":[1.2658E4,9.351E3,3.307E3,7.295E3,2.056E3,1.445E3,1.862E3,7.112E3,1.83E2,5.91E2,1.465E3,6.01E2,8.44E2,7.18E2,1.144E3,5.035E3,2.077E3,5.2E1,1.31E2,2.05E2,3.86E2,8.99E2,5.66E2,2.23E2,3.78E2,4.22E2,4.22E2,1.736E3,3.299E3,5.94E2,1.483E3,3.5E1,1.7E1,1.1E2,2.1E1,8E0,1.97E2,1.93E2,1.93E2,7.24E2,1.75E2,1.31E2,4.35E2,7.1E1,1.52E2,2.62E2,1.16E2,1.4E1,4.08E2],"tree_param":{"num_deleted":"0","num_feature":"45","num_nodes":"49","size_leaf_vector":"1"}},{"base_weights":[1.5868796E-1,1.7140495E1,-4.4502937E1,2.4159979E1,-4.1204195E0,-2.3148664E1,-5.6608627E1,2.522072E1,-4.0381136E0,2.0081774E1,-1.0571225E1,-8.519213E0,-3.2519196E1,-4.610336E1,-4.774104E0,3.212364E1,2.2559608E1,7.642552E0,-1.5603138E1,2.526616E1,1.0282392E1,-5.2192245E0,-3.067187E1,-3.077722E0,-2.9555487E1,-2.5389782E1,-4.1508926E1,-4.2864426E1,-4.0845637E0,2.3894398E0,3.1144705E-1,2.057145E0,1.3687701E0,9.531066E-1,-7.750273E-1,-1.8002322E0,-3.7782642E-1,-1.2310091E-1,1.9574823E0,1.3395308E0,3.4093723E-1,-1.2871136E-2,-1.5153891E0,-1.7104847E0,-2.967418E0,1.5255457E0,-5.162996E-1,-1.0042936E0,-2.4248023E0,1.7468378E-2,-2.0300894E0,-3.1202843E0,-8.7803257E-1,-1.7131479E0,-3.2364824E0],"categories":[],"categories_nodes":[],"categories_segments":[],"categories_sizes":[],"default_left":[0,0,0,0,0,0,0,0,0,0,0,0,0,0,0,0,0,0,0,0,0,0,0,0,0,0,0,0,0,0,0,0,0,0,0,0,0,0,0,0,0,0,0,0,0,0,0,0,0,0,0,0,0,0,0],"id":2,"left_children":[1,3,5,7,9,11,13,15,17,19,21,23,25,27,-1,29,31,33,35,37,39,41,43,45,47,49,51,53,-1,-1,-1,-1,-1,-1,-1,-1,-1,-1,-1,-1,-1,-1,-1,-1,-1,-1,-1,-1,-1,-1,-1,-1,-1,-1,-1],"loss_changes":[9.651338E6,1.3769068E6,8.93595E5,2.08346E5,3.6060512E5,1.7343069E5,1.535505E5,1.15764E5,3.6224414E4,2.2214797E4,1.9420723E5,5.802965E4,3.9801375E4,5.810125E3,0E0,3.81775E3,9.82515E4,1.4084523E4,1.0985564E4,9.925203E3,7.3651035E3,1.1119E5,1.8148E4,3.9937656E4,9.948594E2,2.3476812E4,7.723125E2,2.107375E3,0E0,0E0,0E0,0E0,0E0,0E0,0E0,0E0,0E0,0E0,0E0,0E0,0E0,0E0,0E0,0E0,0E0,0E0,0E0,0E0,0E0,0E0,0E0,0E0,0E0,0E0,0E0],"parents":[2147483647,0,0,1,1,2,2,3,3,4,4,5,5,6,6,7,7,8,8,9,9,10,10,11,11,12,12,13,13,15,15,16,16,17,17,18,18,19,19,20,20,21,21,22,22,23,23,24,24,25,25,26,26,27,27],"right_children":[2,4,6,8,10,12,14,16,18,20,22,24,26,28,-1,30,32,34,36,38,40,42,44,46,48,50,52,54,-1,-1,-1,-1,-1,-1,-1,-1,-1,-1,-1,-1,-1,-1,-1,-1,-1,-1,-1,-1,-1,-1,-1,-1,-1,-1,-1],"split_conditions":[4.7654E1,1.409266E2,8.2544E0,9.07612E3,4.7366E1,6.42924E2,4.7886E1,6.370824E-1,8.15772E3,1.40225E3,9.0804E3,9.07271E3,4.7788E1,9.104E3,-4.774104E0,1.165108E2,4.738E1,1.58963E3,5.53872E2,5.53784E2,9.06037E3,7.7864E0,9.09683E3,1.7895E1,8.15207E3,6.136E-1,5.21056E2,8.5E-1,-4.0845637E0,2.3894398E0,3.1144705E-1,2.057145E0,1.3687701E0,9.531066E-1,-7.750273E-1,-1.8002322E0,-3.7782642E-1,-1.2310091E-1,1.9574823E0,1.3395308E0,3.4093723E-1,-1.2871136E-2,-1.5153891E0,-1.7104847E0,-2.967418E0,1.5255457E0,-5.162996E-1,-1.0042936E0,-2.4248023E0,1.7468378E-2,-2.0300894E0,-3.1202843E0,-8.7803257E-1,-1.7131479E0,-3.2364824E0],"split_indices":[36,43,42,11,36,24,36,44,16,30,11,11,36,11,0,43,36,27,33,33,11,42,11,43,16,42,39,44,0,0,0,0,0,0,0,0,0,0,0,0,0,0,0,0,0,0,0,0,0,0,0,0,0,0,0],"split_type":[0,0,0,0,0,0,0,0,0,0,0,0,0,0,0,0,0,0,0,0,0,0,0,0,0,0,0,0,0,0,0,0,0,0,0,0,0,0,0,0,0,0,0,0,0,0,0,0,0,0,0,0,0,0,0],"sum_hessian":[1.2706E4,9.21E3,3.496E3,6.923E3,2.287E3,1.275E3,2.221E3,6.673E3,2.5E2,4.77E2,1.81E3,5.05E2,7.7E2,9.73E2,1.248E3,1.827E3,4.846E3,1.26E2,1.24E2,3.02E2,1.75E2,1.439E3,3.71E2,4.1E2,9.5E1,4.5E2,3.2E2,7.56E2,2.17E2,1.819E3,8E0,2.116E3,2.73E3,1E2,2.6E1,6.1E1,6.3E1,1.2E1,2.9E2,6.5E1,1.1E2,1.088E3,3.51E2,2.23E2,1.48E2,5.2E1,3.58E2,2.4E1,7.1E1,3.3E1,4.17E2,3.1E2,1E1,4E1,7.16E2],"tree_param":{"num_deleted":"0","num_feature":"45","num_nodes":"55","size_leaf_vector":"1"}},{"base_weights":[-1.8897729E-1,1.6391739E1,-4.0093517E1,2.3548346E1,-4.2949982E-2,-2.2465216E1,-5.3326984E1,2.4400284E1,-5.810683E0,1.7931465E1,-6.3172345E0,-1.0163987E1,-3.310738E1,-4.545612E1,-4.546253E0,2.2195642E0,2.211906E1,-1.3832673E1,1.0035106E1,1.9362305E1,-1.0024894E0,2.9658062E0,-1.6784811E1,-5.4511704E0,-2.3624685E0,-2.8849121E1,-3.3374085E0,-3.401574E1,-3.633E0,2.018639E0,1.4056216E0,-5.6415415E-1,-1.6767926E0,1.0657617E0,-5.230294E-2,1.7702285E0,8.9961725E-1,5.310111E-1,-8.799927E-1,-8.3370274E-1,-2.0498364E0,8.773154E-1,-8.2018125E-1,-1.6876253E0,-2.597064E0,-2.5696652E0,-3.769777E-1],"categories":[],"categories_nodes":[],"categories_segments":[],"categories_sizes":[],"default_left":[0,0,0,0,0,0,0,0,0,0,0,0,0,0,0,0,0,0,0,0,0,0,0,0,0,0,0,0,0,0,0,0,0,0,0,0,0,0,0,0,0,0,0,0,0,0,0],"id":3,"left_children":[1,3,5,7,9,11,13,15,17,19,21,23,25,27,-1,-1,29,31,33,35,-1,37,39,41,-1,43,-1,45,-1,-1,-1,-1,-1,-1,-1,-1,-1,-1,-1,-1,-1,-1,-1,-1,-1,-1,-1],"loss_changes":[8.431497E6,1.0588722E6,8.61073E5,1.582355E5,3.1017075E5,2.0891212E5,1.069355E5,7.05555E4,2.4808988E4,3.4548594E4,1.9857795E5,7.660735E4,3.1290562E4,2.883825E4,0E0,0E0,6.53065E4,5.2595176E3,3.2504194E3,1.9532438E4,0E0,6.856503E4,5.4747156E4,6.3370777E4,0E0,1.72645E4,0E0,3.7204062E3,0E0,0E0,0E0,0E0,0E0,0E0,0E0,0E0,0E0,0E0,0E0,0E0,0E0,0E0,0E0,0E0,0E0,0E0,0E0],"parents":[2147483647,0,0,1,1,2,2,3,3,4,4,5,5,6,6,7,7,8,8,9,9,10,10,11,11,12,12,13,13,16,16,17,17,18,18,19,19,21,21,22,22,23,23,25,25,27,27],"right_children":[2,4,6,8,10,12,14,16,18,20,22,24,26,28,-1,-1,30,32,34,36,-1,38,40,42,-1,44,-1,46,-1,-1,-1,-1,-1,-1,-1,-1,-1,-1,-1,-1,-1,-1,-1,-1,-1,-1,-1],"split_conditions":[1.412234E3,1.038594E2,4.7778E1,8.15554E3,4.738E1,6.302E0,4.7944E1,5.500682E-1,5.21984E2,8.16231E3,5.4454E0,8.15182E3,8.16847E3,7.573E0,-4.546253E0,2.2195642E0,4.7342E1,4.7444E1,6.42392E2,4.7322E1,-1.0024894E0,8.14958E3,1.591908E3,6.42748E2,-2.3624685E0,9.3086E0,-3.3374085E0,5.2109E2,-3.633E0,2.018639E0,1.4056216E0,-5.6415415E-1,-1.6767926E0,1.0657617E0,-5.230294E-2,1.7702285E0,8.9961725E-1,5.310111E-1,-8.799927E-1,-8.3370274E-1,-2.0498364E0,8.773154E-1,-8.2018125E-1,-1.6876253E0,-2.597064E0,-2.5696652E0,-3.769777E-1],"split_indices":[30,43,36,16,36,42,36,44,39,16,42,16,16,42,0,0,36,36,24,36,0,16,27,24,0,42,0,39,0,0,0,0,0,0,0,0,0,0,0,0,0,0,0,0,0,0,0],"split_type":[0,0,0,0,0,0,0,0,0,0,0,0,0,0,0,0,0,0,0,0,0,0,0,0,0,0,0,0,0,0,0,0,0,0,0,0,0,0,0,0,0,0,0,0,0,0,0],"sum_hessian":[1.2724E4,8.993E3,3.731E3,6.262E3,2.731E3,1.611E3,2.12E3,6.087E3,1.75E2,7.02E2,2.029E3,7.56E2,8.55E2,1.1E3,1.02E3,1.743E3,4.344E3,1.17E2,5.8E1,6.75E2,2.7E1,1.079E3,9.5E2,6.31E2,1.25E2,6.54E2,2.01E2,2.84E2,8.16E2,1.634E3,2.71E3,7.9E1,3.8E1,3.9E1,1.9E1,4.02E2,2.73E2,8.45E2,2.34E2,6.42E2,3.08E2,1.52E2,4.79E2,3.52E2,3.02E2,2.76E2,8E0],"tree_param":{"num_deleted":"0","num_feature":"45","num_nodes":"47","size_leaf_vector":"1"}},{"base_weights":[-2.2372557E-1,1.3884094E1,-4.084912E1,1.9338617E1,-7.915528E0,-2.7247948E1,-5.2025684E1,2.2612226E1,8.611788E0,1.1394809E1,-1.5147514E1,-1.8934277E1,-3.694869E1,-4.4917168E1,-4.2691183E0,2.323103E1,4.7998968E-1,2.0885035E1,3.886811E0,2.2845644E1,3.4441166E0,-9.31891E0,-2.7323248E1,8.0187404E-1,-2.2306467E1,-3.0528482E1,-3.0263722E0,-9.535115E-1,-3.348558E0,1.8112457E0,1.0266308E0,-6.782423E-1,9.381913E-1,1.6417757E0,-4.3635467E-1,4.5185834E-1,-1.340317E0,4.8902768E-1,1.7428244E0,4.0744686E-1,-8.812301E-1,-4.2212272E-1,-1.9450548E0,-1.1307892E0,-2.1737661E0,7.945465E-1,-1.1990212E0,-1.3952982E0,-2.658991E0,-2.3592591E0,-9.339413E-1],"categories":[],"categories_nodes":[],"categories_segments":[],"categories_sizes":[],"default_left":[0,0,0,0,0,0,0,0,0,0,0,0,0,0,0,0,0,0,0,0,0,0,0,0,0,0,0,0,0,0,0,0,0,0,0,0,0,0,0,0,0,0,0,0,0,0,0,0,0,0,0],"id":4,"left_children":[1,3,5,7,9,11,13,15,17,19,21,23,25,27,-1,29,31,33,35,37,39,41,43,45,47,49,-1,-1,-1,-1,-1,-1,-1,-1,-1,-1,-1,-1,-1,-1,-1,-1,-1,-1,-1,-1,-1,-1,-1,-1,-1],"loss_changes":[7.2680395E6,1.1207015E6,4.832065E5,2.625965E5,2.6569612E5,1.1379075E5,4.539E4,7.88395E4,1.0224353E5,4.663872E4,9.545106E4,5.5057906E4,4.8435E3,7.73125E2,0E0,5.964E4,2.0642578E4,1.7783844E4,6.3808598E4,7.648203E2,1.0644508E4,5.6672E4,6.3063125E3,2.348078E4,2.6814281E4,2.91525E3,0E0,0E0,0E0,0E0,0E0,0E0,0E0,0E0,0E0,0E0,0E0,0E0,0E0,0E0,0E0,0E0,0E0,0E0,0E0,0E0,0E0,0E0,0E0,0E0,0E0],"parents":[2147483647,0,0,1,1,2,2,3,3,4,4,5,5,6,6,7,7,8,8,9,9,10,10,11,11,12,12,13,13,15,15,16,16,17,17,18,18,19,19,20,20,21,21,22,22,23,23,24,24,25,25],"right_children":[2,4,6,8,10,12,14,16,18,20,22,24,26,28,-1,30,32,34,36,38,40,42,44,46,48,50,-1,-1,-1,-1,-1,-1,-1,-1,-1,-1,-1,-1,-1,-1,-1,-1,-1,-1,-1,-1,-1,-1,-1,-1,-1],"split_conditions":[1.413222E3,4.9514E0,4.782E1,8.96208E1,4.7422E1,8.2544E0,1.422372E3,9.07576E3,4.7352E1,4.731E1,8.47E0,8.29056E1,6.4299E2,1.536722E2,-4.2691183E0,1.409858E3,5.22002E2,8.15911E3,9.07856E3,5.2185E2,8.16144E3,9.0804E3,8.4288E0,4.767E1,9.08423E3,1.078057E3,-3.0263722E0,-9.535115E-1,-3.348558E0,1.8112457E0,1.0266308E0,-6.782423E-1,9.381913E-1,1.6417757E0,-4.3635467E-1,4.5185834E-1,-1.340317E0,4.8902768E-1,1.7428244E0,4.0744686E-1,-8.812301E-1,-4.2212272E-1,-1.9450548E0,-1.1307892E0,-2.1737661E0,7.945465E-1,-1.1990212E0,-1.3952982E0,-2.658991E0,-2.3592591E0,-9.339413E-1],"split_indices":[30,42,36,43,36,42,30,11,36,36,42,43,24,43,0,30,39,16,11,39,16,11,17,36,11,43,0,0,0,0,0,0,0,0,0,0,0,0,0,0,0,0,0,0,0,0,0,0,0,0,0],"split_type":[0,0,0,0,0,0,0,0,0,0,0,0,0,0,0,0,0,0,0,0,0,0,0,0,0,0,0,0,0,0,0,0,0,0,0,0,0,0,0,0,0,0,0,0,0,0,0,0,0,0,0],"sum_hessian":[1.2662E4,9.403E3,3.259E3,7.522E3,1.881E3,1.485E3,1.774E3,5.755E3,1.767E3,5.11E2,1.37E3,8.15E2,6.7E2,8.16E2,9.58E2,5.598E3,1.57E2,4.82E2,1.285E3,2.02E2,3.09E2,9.38E2,4.32E2,1.2E2,6.95E2,2.84E2,3.86E2,1E1,8.06E2,4.952E3,6.46E2,8.9E1,6.8E1,4.62E2,2E1,1.174E3,1.11E2,1.2E1,1.9E2,2.78E2,3.1E1,7.83E2,1.55E2,7.3E1,3.59E2,7.8E1,4.2E1,5.71E2,1.24E2,2.58E2,2.6E1],"tree_param":{"num_deleted":"0","num_feature":"45","num_nodes":"51","size_leaf_vector":"1"}},{"base_weights":[-3.0511054E-1,1.3698476E1,-3.5363594E1,1.8862286E1,-4.468057E0,-1.8596975E1,-4.520976E1,1.9671843E1,-1.5859227E1,1.3523868E1,-1.0192796E1,-4.1620927E0,-2.5646463E1,-3.5735973E1,-5.0829746E1,2.2242407E1,1.2855749E1,-7.01805E0,-2.1714111E1,2.0769117E1,5.068995E0,-4.326972E0,-2.000472E1,3.672889E0,-1.5124454E1,-3.1972694E1,-1.7864466E1,-2.6456854E1,-2.846071E0,-3.3549352E0,-4.044107E0,1.9326575E0,1.4997654E0,1.5161947E0,6.044653E-1,9.388768E-2,-7.380651E-1,-3.9436054E-1,-1.6776509E0,1.6200664E0,1.9431971E-1,5.654744E-1,-6.0039425E-1,1.1986889E-1,-9.770879E-1,-1.085834E0,-2.2250476E0,5.974688E-1,-1.0232968E0,1.3873298E-1,-1.2201968E0,-2.4040685E0,-1.6546428E-1,-9.8381335E-1,-2.4045563E0,-2.0240726E0,-1.1772217E-1],"categories":[],"categories_nodes":[],"categories_segments":[],"categories_sizes":[],"default_left":[0,0,0,0,0,0,0,0,0,0,0,0,0,0,0,0,0,0,0,0,0,0,0,0,0,0,0,0,0,0,0,0,0,0,0,0,0,0,0,0,0,0,0,0,0,0,0,0,0,0,0,0,0,0,0,0,0],"id":5,"left_children":[1,3,5,7,9,11,13,15,17,19,21,23,25,27,29,31,33,35,37,39,41,43,45,47,49,51,53,55,-1,-1,-1,-1,-1,-1,-1,-1,-1,-1,-1,-1,-1,-1,-1,-1,-1,-1,-1,-1,-1,-1,-1,-1,-1,-1,-1,-1,-1],"loss_changes":[6.2448905E6,8.534999E5,5.91259E5,2.020095E5,2.0934945E5,1.3732266E5,1.03908E5,1.18533E5,7.153746E3,2.9098977E4,8.766178E4,3.9843402E4,3.9369125E4,1.184775E4,5.381E3,3.355025E4,6.690506E4,2.083389E3,2.646172E2,4.568086E3,8.662316E3,5.147196E4,2.6466344E4,2.211126E4,4.6558125E3,5.8387188E3,2.4676703E4,4.310547E3,0E0,0E0,0E0,0E0,0E0,0E0,0E0,0E0,0E0,0E0,0E0,0E0,0E0,0E0,0E0,0E0,0E0,0E0,0E0,0E0,0E0,0E0,0E0,0E0,0E0,0E0,0E0,0E0,0E0],"parents":[2147483647,0,0,1,1,2,2,3,3,4,4,5,5,6,6,7,7,8,8,9,9,10,10,11,11,12,12,13,13,14,14,15,15,16,16,17,17,18,18,19,19,20,20,21,21,22,22,23,23,24,24,25,25,26,26,27,27],"right_children":[2,4,6,8,10,12,14,16,18,20,22,24,26,28,30,32,34,36,38,40,42,44,46,48,50,52,54,56,-1,-1,-1,-1,-1,-1,-1,-1,-1,-1,-1,-1,-1,-1,-1,-1,-1,-1,-1,-1,-1,-1,-1,-1,-1,-1,-1,-1,-1],"split_conditions":[4.7648E1,4.607E0,8.2544E0,9.08127E3,4.7388E1,3.7594E0,6.43182E2,5.8866E1,1.589122E3,4.7308E1,9.06962E3,4.771E1,5.52754E2,1.0713967E0,1.423252E3,5.820653E-1,4.738E1,8.15911E3,1.17E0,1.58897E3,8.15601E3,6.9324E0,8.16496E3,8.14326E3,3.34114E1,5.21182E2,8.1571E3,2.33231E1,-2.846071E0,-3.3549352E0,-4.044107E0,1.9326575E0,1.4997654E0,1.5161947E0,6.044653E-1,9.388768E-2,-7.380651E-1,-3.9436054E-1,-1.6776509E0,1.6200664E0,1.9431971E-1,5.654744E-1,-6.0039425E-1,1.1986889E-1,-9.770879E-1,-1.085834E0,-2.2250476E0,5.974688E-1,-1.0232968E0,1.3873298E-1,-1.2201968E0,-2.4040685E0,-1.6546428E-1,-9.8381335E-1,-2.4045563E0,-2.0240726E0,-1.1772217E-1],"split_indices":[36,42,42,11,36,42,24,43,27,36,11,36,33,44,30,44,36,16,42,27,16,42,16,16,43,39,16,23,0,0,0,0,0,0,0,0,0,0,0,0,0,0,0,0,0,0,0,0,0,0,0,0,0,0,0,0,0],"split_type":[0,0,0,0,0,0,0,0,0,0,0,0,0,0,0,0,0,0,0,0,0,0,0,0,0,0,0,0,0,0,0,0,0,0,0,0,0,0,0,0,0,0,0,0,0,0,0,0,0,0,0,0,0,0,0,0,0],"sum_hessian":[1.2701E4,9.08E3,3.621E3,7.07E3,2.01E3,1.35E3,2.271E3,6.913E3,1.57E2,4.82E2,1.528E3,4.48E2,9.02E2,8.72E2,1.399E3,5.004E3,1.909E3,7.1E1,8.6E1,2.52E2,2.3E2,9.65E2,5.63E2,2.65E2,1.83E2,4.81E2,4.21E2,2.17E2,6.55E2,6.09E2,7.9E2,1.689E3,3.315E3,7.18E2,1.191E3,2E1,5.1E1,8E0,7.8E1,2.36E2,1.6E1,1.96E2,3.4E1,5.82E2,3.83E2,3.82E2,1.81E2,2.16E2,4.9E1,1.3E1,1.7E2,4.73E2,8E0,3.34E2,8.7E1,2.09E2,8E0],"tree_param":{"num_deleted":"0","num_feature":"45","num_nodes":"57","size_leaf_vector":"1"}},{"base_weights":[-1.4385384E-1,1.2778002E1,-3.2494755E1,1.8531973E1,-1.4516215E0,-1.9094095E1,-4.3249794E1,1.9174734E1,-7.4306703E0,1.128702E1,-8.478204E0,-2.878692E1,-9.2359E0,-3.6111683E1,-3.583688E0,1.7976058E0,1.7147203E1,1.8543396E0,-1.42921295E1,1.2778729E1,-1.5480018E1,-9.987659E-1,-1.7143227E1,-2.2557928E1,-2.5139883E0,-3.718612E0,-2.5042921E1,-2.0679193E0,-2.8179927E0,1.0972877E0,1.7134553E0,5.992127E-1,-2.930537E-1,-1.3733655E0,-5.2572984E-1,1.4201287E0,5.8149934E-1,-2.4251588E-1,-1.2778499E0,1.9747926E-1,-1.0002297E0,-1.063415E0,-2.358582E0,-1.7538928E0,2.2467047E-2,5.396132E-1,-7.8057307E-1,-1.1585573E0,-2.1912165E0],"categories":[],"categories_nodes":[],"categories_segments":[],"categories_sizes":[],"default_left":[0,0,0,0,0,0,0,0,0,0,0,0,0,0,0,0,0,0,0,0,0,0,0,0,0,0,0,0,0,0,0,0,0,0,0,0,0,0,0,0,0,0,0,0,0,0,0,0,0],"id":6,"left_children":[1,3,5,7,9,11,13,15,17,19,21,23,25,27,-1,-1,29,31,33,35,37,39,41,43,-1,45,47,-1,-1,-1,-1,-1,-1,-1,-1,-1,-1,-1,-1,-1,-1,-1,-1,-1,-1,-1,-1,-1,-1],"loss_changes":[5.29407E6,7.41217E5,5.1299125E5,1.0892175E5,2.3495625E5,1.5286444E5,5.55935E4,6.063175E4,1.0618432E4,3.918558E4,1.0940245E5,1.8615312E4,7.066863E4,3.287375E3,0E0,0E0,6.0084375E4,3.1152979E3,1.6137969E3,2.653839E4,6.0238965E2,4.231871E4,2.7757766E4,9.998641E3,0E0,4.7124918E4,4.4870156E3,0E0,0E0,0E0,0E0,0E0,0E0,0E0,0E0,0E0,0E0,0E0,0E0,0E0,0E0,0E0,0E0,0E0,0E0,0E0,0E0,0E0,0E0],"parents":[2147483647,0,0,1,1,2,2,3,3,4,4,5,5,6,6,7,7,8,8,9,9,10,10,11,11,12,12,13,13,16,16,17,17,18,18,19,19,20,20,21,21,22,22,23,23,25,25,26,26],"right_children":[2,4,6,8,10,12,14,16,18,20,22,24,26,28,-1,-1,30,32,34,36,38,40,42,44,-1,46,48,-1,-1,-1,-1,-1,-1,-1,-1,-1,-1,-1,-1,-1,-1,-1,-1,-1,-1,-1,-1,-1,-1],"split_conditions":[4.7648E1,1.142702E2,9.3086E0,8.15648E3,4.7432E1,5.52768E2,6.43242E2,5.500682E-1,1.40372E3,8.16399E3,6.0658E0,6.43094E2,8.14919E3,1.0893413E0,-3.583688E0,1.7976058E0,5.22104E2,1.5871E3,5.53724E2,4.7322E1,8.16847E3,8.14958E3,8.17318E3,5.21174E2,-2.5139883E0,1.038594E2,8.15601E3,-2.0679193E0,-2.8179927E0,1.0972877E0,1.7134553E0,5.992127E-1,-2.930537E-1,-1.3733655E0,-5.2572984E-1,1.4201287E0,5.8149934E-1,-2.4251588E-1,-1.2778499E0,1.9747926E-1,-1.0002297E0,-1.063415E0,-2.358582E0,-1.7538928E0,2.2467047E-2,5.396132E-1,-7.8057307E-1,-1.1585573E0,-2.1912165E0],"split_indices":[36,43,42,16,36,33,24,44,30,16,42,24,16,44,0,0,39,27,33,36,16,16,16,39,0,43,16,0,0,0,0,0,0,0,0,0,0,0,0,0,0,0,0,0,0,0,0,0,0],"split_type":[0,0,0,0,0,0,0,0,0,0,0,0,0,0,0,0,0,0,0,0,0,0,0,0,0,0,0,0,0,0,0,0,0,0,0,0,0,0,0,0,0,0,0,0,0,0,0,0,0],"sum_hessian":[1.2645E4,9.04E3,3.605E3,6.435E3,2.605E3,1.617E3,1.988E3,6.282E3,1.53E2,9.24E2,1.681E3,8.06E2,8.11E2,8.59E2,1.129E3,1.765E3,4.517E3,6.8E1,8.5E1,8.8E2,4.4E1,9.08E2,7.73E2,3.87E2,4.19E2,6.1E2,2.01E2,1.89E2,6.7E2,3.264E3,1.253E3,3.1E1,3.7E1,4.4E1,4.1E1,3.72E2,5.08E2,9E0,3.5E1,7.08E2,2E2,6.65E2,1.08E2,3.69E2,1.8E1,2.33E2,3.77E2,7.9E1,1.22E2],"tree_param":{"num_deleted":"0","num_feature":"45","num_nodes":"49","size_leaf_vector":"1"}},{"base_weights":[1.3377503E-1,1.1963673E1,-3.0182974E1,1.7691816E1,1.4918925E-1,-1.684455E1,-3.9463158E1,1.8395678E1,-1.954988E0,1.0394756E1,-7.452773E0,-1.097255E1,-2.9641293E1,-3.1827435E1,-4.408444E1,1.6632549E0,1.6628942E1,-1.7165476E1,3.5029593E0,1.1735652E1,-1.5467182E1,-2.3922932E0,-1.9514381E1,-1.9269701E1,-3.2917964E0,-2.5803312E1,-2.771275E0,-2.1923803E1,-2.5015717E0,-2.977425E0,-3.5980537E0,1.3167404E0,6.187949E-1,-3.446665E-1,-1.4367378E0,-7.761234E-2,8.7863505E-1,1.2537665E0,4.748271E-1,-1.6151436E-1,-1.3136047E0,3.5298643E-1,-7.491018E-1,-1.1307105E0,-2.3608353E0,2.6370995E-2,-1.5348582E0,2.8938913E-1,-1.1793647E0,-5.312163E-1,-1.9357443E0,-1.7172692E0,-6.6524243E-1],"categories":[],"categories_nodes":[],"categories_segments":[],"categories_sizes":[],"default_left":[0,0,0,0,0,0,0,0,0,0,0,0,0,0,0,0,0,0,0,0,0,0,0,0,0,0,0,0,0,0,0,0,0,0,0,0,0,0,0,0,0,0,0,0,0,0,0,0,0,0,0,0,0],"id":7,"left_children":[1,3,5,7,9,11,13,15,17,19,21,23,25,27,29,-1,31,33,35,37,39,41,43,45,47,49,-1,51,-1,-1,-1,-1,-1,-1,-1,-1,-1,-1,-1,-1,-1,-1,-1,-1,-1,-1,-1,-1,-1,-1,-1,-1,-1],"loss_changes":[4.515092E6,6.128135E5,4.309905E5,8.4684375E4,2.3180806E5,1.0706716E5,5.9744E4,3.837575E4,1.8815223E4,4.5708797E4,1.0383868E5,6.4429734E4,4.2175312E3,8.3171875E3,3.345E3,0E0,3.7199125E4,7.791094E2,6.562307E3,3.2343812E4,1.616498E3,6.74472E4,2.179089E4,1.3778328E4,4.9749723E4,8.175E1,0E0,5.472656E2,0E0,0E0,0E0,0E0,0E0,0E0,0E0,0E0,0E0,0E0,0E0,0E0,0E0,0E0,0E0,0E0,0E0,0E0,0E0,0E0,0E0,0E0,0E0,0E0,0E0],"parents":[2147483647,0,0,1,1,2,2,3,3,4,4,5,5,6,6,7,7,8,8,9,9,10,10,11,11,12,12,13,13,14,14,16,16,17,17,18,18,19,19,20,20,21,21,22,22,23,23,24,24,25,25,27,27],"right_children":[2,4,6,8,10,12,14,16,18,20,22,24,26,28,30,-1,32,34,36,38,40,42,44,46,48,50,-1,52,-1,-1,-1,-1,-1,-1,-1,-1,-1,-1,-1,-1,-1,-1,-1,-1,-1,-1,-1,-1,-1,-1,-1,-1,-1],"split_conditions":[1.412424E3,9.17796E1,4.7778E1,9.07576E3,4.745E1,9.07703E3,4.7894E1,5.500682E-1,5.53666E2,9.08709E3,8.14941E3,5.20988E2,8.18095E3,6.2078E0,4.8024E1,1.6632549E0,1.409858E3,-6.5978E1,5.22132E2,4.7348E1,1.587898E3,4.8988E0,8.17318E3,2.3534E0,2.216314E2,8.927485E-2,-2.771275E0,5.52848E2,-2.5015717E0,-2.977425E0,-3.5980537E0,1.3167404E0,6.187949E-1,-3.446665E-1,-1.4367378E0,-7.761234E-2,8.7863505E-1,1.2537665E0,4.748271E-1,-1.6151436E-1,-1.3136047E0,3.5298643E-1,-7.491018E-1,-1.1307105E0,-2.3608353E0,2.6370995E-2,-1.5348582E0,2.8938913E-1,-1.1793647E0,-5.312163E-1,-1.9357443E0,-1.7172692E0,-6.6524243E-1],"split_indices":[30,43,36,11,36,11,36,44,33,11,16,39,16,42,36,0,30,43,39,36,27,42,16,42,43,40,0,33,0,0,0,0,0,0,0,0,0,0,0,0,0,0,0,0,0,0,0,0,0,0,0,0,0],"split_type":[0,0,0,0,0,0,0,0,0,0,0,0,0,0,0,0,0,0,0,0,0,0,0,0,0,0,0,0,0,0,0,0,0,0,0,0,0,0,0,0,0,0,0,0,0,0,0,0,0,0,0,0,0],"sum_hessian":[1.257E4,9.046E3,3.524E3,6.089E3,2.957E3,1.457E3,2.067E3,5.879E3,2.1E2,1.258E3,1.699E3,1.011E3,4.46E2,8.08E2,1.259E3,1.756E3,4.123E3,5E1,1.6E2,1.201E3,5.7E1,1.205E3,4.94E2,4.79E2,5.32E2,3.26E2,1.2E2,1.5E2,6.58E2,7.19E2,5.4E2,3.619E3,5.04E2,1.2E1,3.8E1,1.09E2,5.1E1,5.99E2,6.02E2,1.1E1,4.6E1,6.27E2,5.78E2,3.83E2,1.11E2,3.3E1,4.46E2,3.43E2,1.89E2,9E0,3.17E2,1.3E2,2E1],"tree_param":{"num_deleted":"0","num_feature":"45","num_nodes":"53","size_leaf_vector":"1"}},{"base_weights":[-7.606752E-2,1.087616E1,-2.8154757E1,1.4431159E1,-6.059734E0,-1.6706514E1,-3.772282E1,1.5524298E1,-5.378789E0,7.644306E0,-1.18889885E1,-4.45892E0,-2.234201E1,-3.251611E1,-3.1692502E0,1.747297E1,8.407651E0,-1.3652113E1,4.650666E0,2.3022172E0,1.6374027E1,-8.85027E0,-2.3816317E1,6.425731E0,-1.1612479E1,-2.9768585E1,-1.7645636E1,-2.5735756E1,-2.6145594E0,1.5361167E0,1.181658E0,1.0488214E0,2.4459882E-1,6.3765293E-1,-1.110191E0,6.5526915E-1,-7.1281374E-1,8.0225456E-1,-1.2611571E-1,4.5813747E-2,1.2796139E0,-2.7459756E-1,-1.0745404E0,-1.3885016E0,-2.176751E0,7.321365E-1,-7.3210096E-1,-9.693989E-1,3.5018668E-1,-2.2254617E0,-5.7700986E-1,-1.0067843E0,-2.0614016E0,-1.9508537E0,-6.839358E-1],"categories":[],"categories_nodes":[],"categories_segments":[],"categories_sizes":[],"default_left":[0,0,0,0,0,0,0,0,0,0,0,0,0,0,0,0,0,0,0,0,0,0,0,0,0,0,0,0,0,0,0,0,0,0,0,0,0,0,0,0,0,0,0,0,0,0,0,0,0,0,0,0,0,0,0],"id":8,"left_children":[1,3,5,7,9,11,13,15,17,19,21,23,25,27,-1,29,31,33,35,37,39,41,43,45,47,49,51,53,-1,-1,-1,-1,-1,-1,-1,-1,-1,-1,-1,-1,-1,-1,-1,-1,-1,-1,-1,-1,-1,-1,-1,-1,-1,-1,-1],"loss_changes":[3.9197785E6,5.5292125E5,3.8569525E5,1.6498662E5,1.2850297E5,1.12620875E5,3.729025E4,9.825925E4,3.4105836E4,2.2142422E4,3.8725703E4,4.203762E4,3.4156188E4,9.710125E3,0E0,2.4898875E4,4.537607E4,7.8092266E3,1.2142166E4,1.0769009E4,2.421293E3,2.5948992E4,9.743281E2,1.3113505E4,8.31818E3,3.15625E0,2.5796E4,7.0084375E2,0E0,0E0,0E0,0E0,0E0,0E0,0E0,0E0,0E0,0E0,0E0,0E0,0E0,0E0,0E0,0E0,0E0,0E0,0E0,0E0,0E0,0E0,0E0,0E0,0E0,0E0,0E0],"parents":[2147483647,0,0,1,1,2,2,3,3,4,4,5,5,6,6,7,7,8,8,9,9,10,10,11,11,12,12,13,13,15,15,16,16,17,17,18,18,19,19,20,20,21,21,22,22,23,23,24,24,25,25,26,26,27,27],"right_children":[2,4,6,8,10,12,14,16,18,20,22,24,26,28,-1,30,32,34,36,38,40,42,44,46,48,50,52,54,-1,-1,-1,-1,-1,-1,-1,-1,-1,-1,-1,-1,-1,-1,-1,-1,-1,-1,-1,-1,-1,-1,-1,-1,-1,-1,-1],"split_conditions":[4.7648E1,5.2784E0,9.4644E0,9.07576E3,6.42484E2,4.1716E0,6.4331E2,8.96208E1,5.5388E2,5.22026E2,8.16062E3,6.42858E2,5.20712E2,1.1629821E0,-3.1692502E0,5.820653E-1,6.42488E2,8.14529E3,8.16318E3,8.13962E3,5.5388E2,7.469E0,9.104E3,8.14224E3,5.53236E2,5.5331E2,8.1571E3,1.145E1,-2.6145594E0,1.5361167E0,1.181658E0,1.0488214E0,2.4459882E-1,6.3765293E-1,-1.110191E0,6.5526915E-1,-7.1281374E-1,8.0225456E-1,-1.2611571E-1,4.5813747E-2,1.2796139E0,-2.7459756E-1,-1.0745404E0,-1.3885016E0,-2.176751E0,7.321365E-1,-7.3210096E-1,-9.693989E-1,3.5018668E-1,-2.2254617E0,-5.7700986E-1,-1.0067843E0,-2.0614016E0,-1.9508537E0,-6.839358E-1],"split_indices":[36,42,42,11,24,42,24,43,33,39,16,24,39,44,0,44,24,16,16,16,33,42,11,16,33,9,16,32,0,0,0,0,0,0,0,0,0,0,0,0,0,0,0,0,0,0,0,0,0,0,0,0,0,0,0],"split_type":[0,0,0,0,0,0,0,0,0,0,0,0,0,0,0,0,0,0,0,0,0,0,0,0,0,0,0,0,0,0,0,0,0,0,0,0,0,0,0,0,0,0,0,0,0,0,0,0,0,0,0,0,0,0,0],"sum_hessian":[1.2727E4,9.16E3,3.567E3,7.572E3,1.588E3,1.636E3,1.931E3,7.178E3,3.94E2,4.73E2,1.115E3,5.21E2,1.115E3,9.83E2,9.48E2,5.624E3,1.554E3,2.14E2,1.8E2,3.01E2,1.72E2,9.02E2,2.13E2,2.07E2,3.14E2,4.12E2,7.03E2,3.12E2,6.71E2,1.77E3,3.854E3,7.24E2,8.3E2,9E0,2.05E2,1.42E2,3.8E1,9.1E1,2.1E2,1E1,1.62E2,4.8E2,4.22E2,1.33E2,8E1,1.74E2,3.3E1,2.9E2,2.4E1,4.04E2,8E0,5.18E2,1.85E2,2.96E2,1.6E1],"tree_param":{"num_deleted":"0","num_feature":"45","num_nodes":"55","size_leaf_vector":"1"}},{"base_weights":[-4.459747E-1,1.011678E1,-2.5981339E1,1.4233081E1,-2.5163221E0,-1.5796551E1,-3.451213E1,1.6559761E1,8.17877E0,-1.0499769E1,7.0598054E0,-7.4660335E0,-2.1736311E1,-2.6920116E1,-3.7953133E1,1.6950373E1,1.9329846E0,9.27785E0,-1.37497425E1,-1.9867449E0,-1.511162E1,9.4743185E0,-1.2249229E1,7.0037904E0,-1.0831433E1,-1.5801943E1,-2.592381E1,-1.03306E1,-2.7809103E1,-3.3983044E1,-3.0568297E0,1.3150773E0,8.6567914E-1,-4.9087328E-1,7.016946E-1,4.1895095E-1,1.156719E0,-2.9462057E-1,-1.1777805E0,-8.2743585E-1,3.36534E-1,-5.681193E-1,-1.3708615E0,1.280548E0,4.073024E-1,-1.3936248E-2,-1.1791222E0,8.801704E-1,-5.8597344E-1,-3.3239055E-1,-1.0081445E0,-7.890693E-1,-1.9338166E0,-8.656086E-1,-1.9873154E0,-1.19014844E-1,-9.696183E-1,-1.0167309E0,-2.1196125E0,-1.88284E0,-2.6600072E0],"categories":[],"categories_nodes":[],"categories_segments":[],"categories_sizes":[],"default_left":[0,0,0,0,0,0,0,0,0,0,0,0,0,0,0,0,0,0,0,0,0,0,0,0,0,0,0,0,0,0,0,0,0,0,0,0,0,0,0,0,0,0,0,0,0,0,0,0,0,0,0,0,0,0,0,0,0,0,0,0,0],"id":9,"left_children":[1,3,5,7,9,11,13,15,17,19,21,23,25,27,29,31,33,35,37,39,41,43,45,47,49,51,53,55,57,59,-1,-1,-1,-1,-1,-1,-1,-1,-1,-1,-1,-1,-1,-1,-1,-1,-1,-1,-1,-1,-1,-1,-1,-1,-1,-1,-1,-1,-1,-1,-1],"loss_changes":[3.38909E6,4.625705E5,3.1418175E5,9.315025E4,1.6834338E5,8.223584E4,4.219975E4,2.7304125E4,4.655489E4,4.6807516E4,4.7863418E4,3.577583E4,2.0490062E4,6.8809062E3,3.9865E3,1.748675E4,9.404105E3,4.0352125E4,1.3427129E3,2.6381762E4,1.8162922E4,2.691082E4,5.0633926E3,1.1178334E4,9.723461E3,2.0213758E4,3.9974062E3,9.612827E2,2.9489688E3,1.9850625E3,0E0,0E0,0E0,0E0,0E0,0E0,0E0,0E0,0E0,0E0,0E0,0E0,0E0,0E0,0E0,0E0,0E0,0E0,0E0,0E0,0E0,0E0,0E0,0E0,0E0,0E0,0E0,0E0,0E0,0E0,0E0],"parents":[2147483647,0,0,1,1,2,2,3,3,4,4,5,5,6,6,7,7,8,8,9,9,10,10,11,11,12,12,13,13,14,14,15,15,16,16,17,17,18,18,19,19,20,20,21,21,22,22,23,23,24,24,25,25,26,26,27,27,28,28,29,29],"right_children":[2,4,6,8,10,12,14,16,18,20,22,24,26,28,30,32,34,36,38,40,42,44,46,48,50,52,54,56,58,60,-1,-1,-1,-1,-1,-1,-1,-1,-1,-1,-1,-1,-1,-1,-1,-1,-1,-1,-1,-1,-1,-1,-1,-1,-1,-1,-1,-1,-1,-1,-1],"split_conditions":[1.412326E3,4.1716E0,1.417282E3,5.8866E1,5.53614E2,5.856E0,1.10394E1,9.07525E3,9.08255E3,1.801096E2,9.0804E3,6.42752E2,1.1079829E0,1.593276E3,1.423512E3,6.42724E2,5.21984E2,5.5389E2,1.58799E3,1.41207E3,8.4382E0,4.7298E1,1.588254E3,1.9484E2,1.591702E3,8.1571E3,4.7608E1,4.7756E1,6.42936E2,1.12E0,-3.0568297E0,1.3150773E0,8.6567914E-1,-4.9087328E-1,7.016946E-1,4.1895095E-1,1.156719E0,-2.9462057E-1,-1.1777805E0,-8.2743585E-1,3.36534E-1,-5.681193E-1,-1.3708615E0,1.280548E0,4.073024E-1,-1.3936248E-2,-1.1791222E0,8.801704E-1,-5.8597344E-1,-3.3239055E-1,-1.0081445E0,-7.890693E-1,-1.9338166E0,-8.656086E-1,-1.9873154E0,-1.19014844E-1,-9.696183E-1,-1.0167309E0,-2.1196125E0,-1.88284E0,-2.6600072E0],"split_indices":[30,42,30,43,33,42,42,11,11,43,11,24,44,27,30,24,39,33,27,6,17,36,27,43,27,16,36,36,24,44,0,0,0,0,0,0,0,0,0,0,0,0,0,0,0,0,0,0,0,0,0,0,0,0,0,0,0,0,0,0,0],"split_type":[0,0,0,0,0,0,0,0,0,0,0,0,0,0,0,0,0,0,0,0,0,0,0,0,0,0,0,0,0,0,0,0,0,0,0,0,0,0,0,0,0,0,0,0,0,0,0,0,0,0,0,0,0,0,0,0,0,0,0,0,0],"sum_hessian":[1.2546E4,8.879E3,3.667E3,6.696E3,2.183E3,1.684E3,1.983E3,4.825E3,1.871E3,1.19E3,9.93E2,7.1E2,9.74E2,6.45E2,1.338E3,4.698E3,1.27E2,1.787E3,8.4E1,4.23E2,7.67E2,8.87E2,1.06E2,1.32E2,5.78E2,4.22E2,5.52E2,3.9E1,6.06E2,6.54E2,6.84E2,4.07E3,6.28E2,6E1,6.7E1,1.147E3,6.4E2,2E1,6.4E1,1.73E2,2.5E2,2.49E2,5.18E2,2.89E2,5.98E2,2.7E1,7.9E1,1.01E2,3.1E1,1.83E2,3.95E2,2.94E2,1.28E2,4E1,5.12E2,1.3E1,2.6E1,4.1E1,5.65E2,1.43E2,5.11E2],"tree_param":{"num_deleted":"0","num_feature":"45","num_nodes":"61","size_leaf_vector":"1"}},{"base_weights":[-3.382238E-2,9.498062E0,-2.4303827E1,1.2567708E1,-5.347092E0,-1.3528232E1,-3.1823238E1,1.3400917E1,-8.901781E0,6.353534E0,-1.0025126E1,-1.0773078E0,-1.8714811E1,-2.5273771E1,-3.542659E1,1.5052236E1,7.415288E0,4.4116755E0,-1.2998579E1,1.2512324E0,2.6149848E0,-5.4756503E0,-1.7710447E1,2.2466547E0,-1.4521102E1,-1.2443431E1,-2.3150795E1,-7.384063E0,-2.620076E1,-2.3726764E0,-2.855926E0,1.0247293E0,1.3538729E0,9.4921684E-1,2.2267735E-1,6.9167703E-1,-1.4171328E-1,-1.2329535E0,-4.8500654E-1,7.159654E-1,-2.3490421E-2,-6.5180916E-1,5.432291E-1,-1.4305727E0,-6.410478E-1,-9.1165245E-1,3.6932367E-1,-1.545946E0,-6.217387E-1,-6.239304E-1,-1.6307161E0,-1.7518977E0,-4.2324445E-1,2.0719904E-1,-7.538812E-1,-1.757357E0,-2.2972667E0],"categories":[],"categories_nodes":[],"categories_segments":[],"categories_sizes":[],"default_left":[0,0,0,0,0,0,0,0,0,0,0,0,0,0,0,0,0,0,0,0,0,0,0,0,0,0,0,0,0,0,0,0,0,0,0,0,0,0,0,0,0,0,0,0,0,0,0,0,0,0,0,0,0,0,0,0,0],"id":10,"left_children":[1,3,5,7,9,11,13,15,17,19,21,23,25,27,29,31,33,35,37,-1,39,41,43,45,47,49,51,53,55,-1,-1,-1,-1,-1,-1,-1,-1,-1,-1,-1,-1,-1,-1,-1,-1,-1,-1,-1,-1,-1,-1,-1,-1,-1,-1,-1,-1],"loss_changes":[2.9218715E6,4.1390075E5,2.84431E5,1.356305E5,8.603748E4,9.541978E4,4.07015E4,7.048925E4,1.61878125E4,1.7335908E4,3.817492E4,2.0230008E4,2.6280688E4,1.0994156E4,2.13875E3,1.9957875E4,3.7283938E4,2.4927668E3,4.1430625E3,0E0,7.144188E3,3.1028857E4,4.2927188E3,1.5125478E4,1.7920898E3,1.5665031E4,3.6734375E3,1.7372502E3,1.6874688E3,0E0,0E0,0E0,0E0,0E0,0E0,0E0,0E0,0E0,0E0,0E0,0E0,0E0,0E0,0E0,0E0,0E0,0E0,0E0,0E0,0E0,0E0,0E0,0E0,0E0,0E0,0E0,0E0],"parents":[2147483647,0,0,1,1,2,2,3,3,4,4,5,5,6,6,7,7,8,8,9,9,10,10,11,11,12,12,13,13,14,14,15,15,16,16,17,17,18,18,20,20,21,21,22,22,23,23,24,24,25,25,26,26,27,27,28,28],"right_children":[2,4,6,8,10,12,14,16,18,20,22,24,26,28,30,32,34,36,38,-1,40,42,44,46,48,50,52,54,56,-1,-1,-1,-1,-1,-1,-1,-1,-1,-1,-1,-1,-1,-1,-1,-1,-1,-1,-1,-1,-1,-1,-1,-1,-1,-1,-1,-1],"split_conditions":[4.7648E1,5.3558E0,6.43074E2,9.078E3,4.7426E1,4.07E0,1.10394E1,9.17796E1,1.587048E3,4.7274E1,8.47E0,8.14406E3,1.110839E0,1.591638E3,1.423822E3,5.22172E2,9.05982E3,1.402346E3,3.888E1,1.2512324E0,8.14016E3,6.94E0,7.54679E2,5.2083E2,1.267308E2,8.15601E3,1.207077E3,1.589546E3,6.43328E2,-2.3726764E0,-2.855926E0,1.0247293E0,1.3538729E0,9.4921684E-1,2.2267735E-1,6.9167703E-1,-1.4171328E-1,-1.2329535E0,-4.8500654E-1,7.159654E-1,-2.3490421E-2,-6.5180916E-1,5.432291E-1,-1.4305727E0,-6.410478E-1,-9.1165245E-1,3.6932367E-1,-1.545946E0,-6.217387E-1,-6.239304E-1,-1.6307161E0,-1.7518977E0,-4.2324445E-1,2.0719904E-1,-7.538812E-1,-1.757357E0,-2.2972667E0],"split_indices":[36,42,24,11,36,42,42,43,27,36,42,16,44,27,30,39,11,30,22,0,16,32,43,39,43,16,43,27,24,0,0,0,0,0,0,0,0,0,0,0,0,0,0,0,0,0,0,0,0,0,0,0,0,0,0,0,0],"split_type":[0,0,0,0,0,0,0,0,0,0,0,0,0,0,0,0,0,0,0,0,0,0,0,0,0,0,0,0,0,0,0,0,0,0,0,0,0,0,0,0,0,0,0,0,0,0,0,0,0,0,0,0,0,0,0,0,0],"sum_hessian":[1.2611E4,9.059E3,3.552E3,7.508E3,1.551E3,1.471E3,2.081E3,7.231E3,2.77E2,4.42E2,1.109E3,4.36E2,1.035E3,7.66E2,1.315E3,5.656E3,1.575E3,6.5E1,2.12E2,1.07E2,3.35E2,7.07E2,4.02E2,3.56E2,8E1,4.44E2,5.91E2,4.2E1,7.24E2,6.75E2,6.4E2,4.122E3,1.534E3,7.01E2,8.74E2,3.4E1,3.1E1,1.26E2,8.6E1,9.2E1,2.43E2,5.64E2,1.43E2,3.33E2,6.9E1,5.1E1,3.05E2,2.8E1,5.2E1,3.25E2,1.19E2,5.72E2,1.9E1,9E0,3.3E1,5.13E2,2.11E2],"tree_param":{"num_deleted":"0","num_feature":"45","num_nodes":"57","size_leaf_vector":"1"}},{"base_weights":[-2.5246802E-1,8.529281E0,-2.280928E1,1.2384184E1,-2.5434818E0,-1.3593873E1,-3.0253868E1,1.32108965E1,-3.1610498E0,9.13676E0,-7.2523727E0,-2.0574842E1,-6.3965077E0,-2.5859127E1,-2.5118687E0,1.4820172E1,9.965708E0,5.0224805E0,-1.0819891E1,1.4694376E1,3.4537227E0,-3.2881966E0,-1.4610076E1,-1.8501123E1,-2.0693874E0,-1.4168231E0,-1.8185707E1,-2.1576757E1,-2.0846694E0,1.2791643E0,9.983299E-1,9.120809E-1,1.3607231E-1,7.935381E-1,-1.6563465E-1,-3.7549245E-1,-1.2333767E0,1.1335541E0,1.2330043E-1,5.754381E-1,-1.1350894E-1,-9.2862356E-1,6.975694E-2,-8.5153806E-1,-1.8354174E0,-1.1445222E0,-1.8774506E0,4.0881127E-1,-5.097831E-1,-1.0296749E0,-1.8129576E0,-1.6266428E0,-4.5938024E-1],"categories":[],"categories_nodes":[],"categories_segments":[],"categories_sizes":[],"default_left":[0,0,0,0,0,0,0,0,0,0,0,0,0,0,0,0,0,0,0,0,0,0,0,0,0,0,0,0,0,0,0,0,0,0,0,0,0,0,0,0,0,0,0,0,0,0,0,0,0,0,0,0,0],"id":11,"left_children":[1,3,5,7,9,11,13,15,17,19,21,23,25,27,-1,29,31,33,35,37,39,41,43,45,-1,47,49,51,-1,-1,-1,-1,-1,-1,-1,-1,-1,-1,-1,-1,-1,-1,-1,-1,-1,-1,-1,-1,-1,-1,-1,-1,-1],"loss_changes":[2.4965292E6,3.8752256E5,2.3831838E5,8.690206E4,1.29926055E5,7.8900625E4,2.2508875E4,3.1958375E4,2.2313293E4,2.0974602E4,4.8554523E4,7.2679375E3,4.669349E4,3.0253125E3,0E0,1.17851875E4,4.056364E4,7.4279795E3,5.2970195E3,2.3834453E3,7.599067E3,4.3255934E4,1.5825281E4,9.955672E3,0E0,2.2025076E4,3.0960078E3,6.721094E2,0E0,0E0,0E0,0E0,0E0,0E0,0E0,0E0,0E0,0E0,0E0,0E0,0E0,0E0,0E0,0E0,0E0,0E0,0E0,0E0,0E0,0E0,0E0,0E0,0E0],"parents":[2147483647,0,0,1,1,2,2,3,3,4,4,5,5,6,6,7,7,8,8,9,9,10,10,11,11,12,12,13,13,15,15,16,16,17,17,18,18,19,19,20,20,21,21,22,22,23,23,25,25,26,26,27,27],"right_children":[2,4,6,8,10,12,14,16,18,20,22,24,26,28,-1,30,32,34,36,38,40,42,44,46,-1,48,50,52,-1,-1,-1,-1,-1,-1,-1,-1,-1,-1,-1,-1,-1,-1,-1,-1,-1,-1,-1,-1,-1,-1,-1,-1,-1],"split_conditions":[4.7648E1,4.1716E0,9.3086E0,9.07483E3,6.42444E2,5.209E2,6.43284E2,6.4257E2,4.737E1,4.7328E1,9.07056E3,8.16144E3,8.149E3,1.1812E1,-2.5118687E0,4.726E1,8.14134E3,8.15554E3,4.7502E1,1.58897E3,8.14406E3,6E-2,8.17436E3,1.3E0,-2.0693874E0,3.5238E0,8.16318E3,1.145E1,-2.0846694E0,1.2791643E0,9.983299E-1,9.120809E-1,1.3607231E-1,7.935381E-1,-1.6563465E-1,-3.7549245E-1,-1.2333767E0,1.1335541E0,1.2330043E-1,5.754381E-1,-1.1350894E-1,-9.2862356E-1,6.975694E-2,-8.5153806E-1,-1.8354174E0,-1.1445222E0,-1.8774506E0,4.0881127E-1,-5.097831E-1,-1.0296749E0,-1.8129576E0,-1.6266428E0,-4.5938024E-1],"split_indices":[36,42,42,11,24,39,24,24,36,36,11,16,16,42,0,36,16,16,36,27,16,32,16,44,0,42,16,32,0,0,0,0,0,0,0,0,0,0,0,0,0,0,0,0,0,0,0,0,0,0,0,0,0],"split_type":[0,0,0,0,0,0,0,0,0,0,0,0,0,0,0,0,0,0,0,0,0,0,0,0,0,0,0,0,0,0,0,0,0,0,0,0,0,0,0,0,0,0,0,0,0,0,0,0,0,0,0,0,0],"sum_hessian":[1.2584E4,9.062E3,3.522E3,6.721E3,2.341E3,1.586E3,1.936E3,6.383E3,3.38E2,6.7E2,1.671E3,7.96E2,7.9E2,9.1E2,1.026E3,4.244E3,2.139E3,1.65E2,1.73E2,3.31E2,3.39E2,1.095E3,5.76E2,6.47E2,1.49E2,5.63E2,2.27E2,3.49E2,5.61E2,1.48E3,2.764E3,1.658E3,4.81E2,9E1,7.5E1,9.6E1,7.7E1,3.15E2,1.6E1,1.79E2,1.6E2,3.38E2,7.57E2,4.56E2,1.2E2,4.68E2,1.79E2,2.48E2,3.15E2,1.53E2,7.4E1,3.37E2,1.2E1],"tree_param":{"num_deleted":"0","num_feature":"45","num_nodes":"53","size_leaf_vector":"1"}},{"base_weights":[-2.1732446E-2,8.060018E0,-2.1275845E1,1.1770403E1,-1.8021942E0,-9.955881E0,-2.6285086E1,1.3258332E1,6.4052706E0,7.5124125E0,-6.3414183E0,6.86266E-1,-1.4328411E1,-2.0055326E1,-3.0057203E1,1.3653308E1,-1.6133536E-1,1.2075131E1,2.4389472E0,2.4481344E0,1.2928312E1,-1.6085553E0,-1.3921818E1,5.802135E0,-5.1896496E0,-7.7146297E0,-1.888438E1,-2.3198475E1,-1.5698786E1,-2.6968363E1,-2.4675825E0,1.1702914E0,9.376389E-1,2.6212937E-1,-9.9380314E-1,9.738697E-1,-4.327999E-2,-9.7718954E-1,2.947533E-1,1.1942968E0,4.0139515E-2,1.0851644E0,3.3921358E-1,1.5484646E-1,-8.23353E-1,-8.052358E-1,-1.6946837E0,6.7249894E-1,-6.4928705E-1,-6.6335475E-1,9.861669E-2,-2.997591E-1,-1.2108209E0,-1.4391369E0,-1.6727966E-1,-4.0848553E-1,-1.7354232E0,-8.7806463E-1,-1.6262136E0,-1.6197016E0,-2.1255705E0],"categories":[],"categories_nodes":[],"categories_segments":[],"categories_sizes":[],"default_left":[0,0,0,0,0,0,0,0,0,0,0,0,0,0,0,0,0,0,0,0,0,0,0,0,0,0,0,0,0,0,0,0,0,0,0,0,0,0,0,0,0,0,0,0,0,0,0,0,0,0,0,0,0,0,0,0,0,0,0,0,0],"id":12,"left_children":[1,3,5,7,9,11,13,15,17,19,21,23,25,27,29,31,33,35,37,39,41,43,45,47,49,51,53,55,57,59,-1,-1,-1,-1,-1,-1,-1,-1,-1,-1,-1,-1,-1,-1,-1,-1,-1,-1,-1,-1,-1,-1,-1,-1,-1,-1,-1,-1,-1,-1,-1],"loss_changes":[2.177065E6,3.362223E5,1.9546475E5,5.2454438E4,1.0694994E5,5.0661016E4,5.0926E4,2.7667875E4,3.2719508E4,2.2448234E4,6.07245E4,1.0079199E4,2.1813719E4,9.351719E3,6.1095E3,8.9515E3,8.222172E3,8.135461E3,2.1509414E4,1.1389804E4,5.0338516E3,3.7313836E4,1.5430008E4,9.262211E3,3.9515059E3,9.820486E3,3.4902812E3,6.61625E2,7.6768438E3,9.90875E2,0E0,0E0,0E0,0E0,0E0,0E0,0E0,0E0,0E0,0E0,0E0,0E0,0E0,0E0,0E0,0E0,0E0,0E0,0E0,0E0,0E0,0E0,0E0,0E0,0E0,0E0,0E0,0E0,0E0,0E0,0E0],"parents":[2147483647,0,0,1,1,2,2,3,3,4,4,5,5,6,6,7,7,8,8,9,9,10,10,11,11,12,12,13,13,14,14,15,15,16,16,17,17,18,18,19,19,20,20,21,21,22,22,23,23,24,24,25,25,26,26,27,27,28,28,29,29],"right_children":[2,4,6,8,10,12,14,16,18,20,22,24,26,28,30,32,34,36,38,40,42,44,46,48,50,52,54,56,58,60,-1,-1,-1,-1,-1,-1,-1,-1,-1,-1,-1,-1,-1,-1,-1,-1,-1,-1,-1,-1,-1,-1,-1,-1,-1,-1,-1,-1,-1,-1,-1],"split_conditions":[4.7654E1,1.238546E2,6.43004E2,3.0926E0,1.588254E3,3.7594E0,1.07034E1,9.07525E3,9.136793E-1,5.54008E2,9.07056E3,6.42858E2,1.1019516E0,5.20712E2,1.423822E3,6.28479E-1,1.589466E3,9.07146E3,-4.06E0,8.13044E3,1.40332E3,7.2848E0,8.17436E3,9.06713E3,5.5297E2,9.07368E3,1.078057E3,1.386054E2,9.07703E3,1.2106676E0,-2.4675825E0,1.1702914E0,9.376389E-1,2.6212937E-1,-9.9380314E-1,9.738697E-1,-4.327999E-2,-9.7718954E-1,2.947533E-1,1.1942968E0,4.0139515E-2,1.0851644E0,3.3921358E-1,1.5484646E-1,-8.23353E-1,-8.052358E-1,-1.6946837E0,6.7249894E-1,-6.4928705E-1,-6.6335475E-1,9.861669E-2,-2.997591E-1,-1.2108209E0,-1.4391369E0,-1.6727966E-1,-4.0848553E-1,-1.7354232E0,-8.7806463E-1,-1.6262136E0,-1.6197016E0,-2.1255705E0],"split_indices":[36,43,24,42,27,42,42,11,44,33,11,24,44,39,30,44,27,11,32,16,30,42,16,11,9,11,43,43,11,44,0,0,0,0,0,0,0,0,0,0,0,0,0,0,0,0,0,0,0,0,0,0,0,0,0,0,0,0,0,0,0],"split_type":[0,0,0,0,0,0,0,0,0,0,0,0,0,0,0,0,0,0,0,0,0,0,0,0,0,0,0,0,0,0,0,0,0,0,0,0,0,0,0,0,0,0,0,0,0,0,0,0,0,0,0,0,0,0,0,0,0,0,0,0,0],"sum_hessian":[1.2655E4,9.173E3,3.482E3,6.664E3,2.509E3,1.077E3,2.405E3,5.206E3,1.458E3,8.2E2,1.689E3,3.16E2,7.61E2,9.3E2,1.475E3,5.057E3,1.49E2,5.92E2,8.66E2,4.31E2,3.89E2,1.047E3,6.42E2,1.69E2,1.47E2,3.21E2,4.4E2,5.16E2,4.14E2,7.99E2,6.76E2,1.58E3,3.477E3,1.22E2,2.7E1,5.46E2,4.6E1,7.1E1,7.95E2,4.4E1,3.87E2,3.17E2,7.2E1,7.59E2,2.88E2,4.94E2,1.48E2,1.41E2,2.8E1,9.1E1,5.6E1,2.35E2,8.6E1,4.25E2,1.5E1,9E0,5.07E2,2.73E2,1.41E2,2.32E2,5.67E2],"tree_param":{"num_deleted":"0","num_feature":"45","num_nodes":"61","size_leaf_vector":"1"}},{"base_weights":[8.276302E-3,7.358123E0,-1.9986567E1,1.0870565E1,-1.9740857E0,-1.2961914E1,-2.6063822E1,1.1446869E1,-6.788526E0,6.307209E0,-7.766013E0,-1.7292927E1,-5.5051923E0,-2.2718E1,-3.0189863E1,1.0088578E1,1.4896982E1,-1.0488375E1,3.4740639E0,7.615231E0,-1.240825E1,3.872257E0,-9.492628E0,-1.4497593E1,-2.2197737E1,-7.856702E-1,-1.588723E1,-1.9905556E1,-1.896664E0,-7.5915E-1,-2.254248E0,1.1115775E0,6.261695E-1,1.119499E0,6.854983E-1,-4.7159848E-1,-1.2004964E0,4.6260017E-1,-2.8621215E-1,2.0615524E-1,7.938426E-1,-1.0619291E0,-7.325764E-2,7.7927935E-1,-2.6472798E-2,-3.2737985E-1,-9.907237E-1,-8.6622334E-1,-1.6754934E0,-1.6697739E0,-2.9374444E-1,4.9483085E-1,-3.5834935E-1,-1.23802006E-1,-1.2249811E0,-1.5069228E0,-4.9728632E-1],"categories":[],"categories_nodes":[],"categories_segments":[],"categories_sizes":[],"default_left":[0,0,0,0,0,0,0,0,0,0,0,0,0,0,0,0,0,0,0,0,0,0,0,0,0,0,0,0,0,0,0,0,0,0,0,0,0,0,0,0,0,0,0,0,0,0,0,0,0,0,0,0,0,0,0,0,0],"id":13,"left_children":[1,3,5,7,9,11,13,15,17,19,21,23,25,27,29,31,33,35,37,39,41,43,45,47,49,51,53,55,-1,-1,-1,-1,-1,-1,-1,-1,-1,-1,-1,-1,-1,-1,-1,-1,-1,-1,-1,-1,-1,-1,-1,-1,-1,-1,-1,-1,-1],"loss_changes":[1.8429069E6,3.007781E5,1.4063362E5,6.856544E4,1.2113413E5,5.0191375E4,1.8199E4,2.8805875E4,8.577846E3,2.638546E4,3.018854E4,1.0558219E4,2.9063139E4,3.3853125E3,2.5375E2,3.635628E4,6.9496875E2,2.8095762E3,1.5429194E3,1.433468E4,1.4268291E3,5.6130205E3,2.4876875E4,1.2561422E4,1.1460156E3,1.2977858E4,1.4019297E3,1.78225E3,0E0,0E0,0E0,0E0,0E0,0E0,0E0,0E0,0E0,0E0,0E0,0E0,0E0,0E0,0E0,0E0,0E0,0E0,0E0,0E0,0E0,0E0,0E0,0E0,0E0,0E0,0E0,0E0,0E0],"parents":[2147483647,0,0,1,1,2,2,3,3,4,4,5,5,6,6,7,7,8,8,9,9,10,10,11,11,12,12,13,13,14,14,15,15,16,16,17,17,18,18,19,19,20,20,21,21,22,22,23,23,24,24,25,25,26,26,27,27],"right_children":[2,4,6,8,10,12,14,16,18,20,22,24,26,28,30,32,34,36,38,40,42,44,46,48,50,52,54,56,-1,-1,-1,-1,-1,-1,-1,-1,-1,-1,-1,-1,-1,-1,-1,-1,-1,-1,-1,-1,-1,-1,-1,-1,-1,-1,-1,-1,-1],"split_conditions":[1.412832E3,1.267308E2,9.93E0,8.15554E3,6.42548E2,5.52862E2,1.598634E3,5.54206E2,5.2207E2,9.08344E3,2.0308E0,1.2232603E0,8.149E3,1.3646567E0,8.4326744E-1,5.820653E-1,6.42464E2,8.4415E0,6.42422E2,5.53812E2,5.54094E2,9.05739E3,4.7556E1,9.08622E3,1.8308468E-1,6.42822E2,9.06888E3,1.145E1,-1.896664E0,-7.5915E-1,-2.254248E0,1.1115775E0,6.261695E-1,1.119499E0,6.854983E-1,-4.7159848E-1,-1.2004964E0,4.6260017E-1,-2.8621215E-1,2.0615524E-1,7.938426E-1,-1.0619291E0,-7.325764E-2,7.7927935E-1,-2.6472798E-2,-3.2737985E-1,-9.907237E-1,-8.6622334E-1,-1.6754934E0,-1.6697739E0,-2.9374444E-1,4.9483085E-1,-3.5834935E-1,-1.23802006E-1,-1.2249811E0,-1.5069228E0,-4.9728632E-1],"split_indices":[30,43,42,16,24,33,27,33,39,11,42,44,16,44,44,44,24,17,24,33,33,11,36,11,37,24,11,32,0,0,0,0,0,0,0,0,0,0,0,0,0,0,0,0,0,0,0,0,0,0,0,0,0,0,0,0,0],"split_type":[0,0,0,0,0,0,0,0,0,0,0,0,0,0,0,0,0,0,0,0,0,0,0,0,0,0,0,0,0,0,0,0,0,0,0,0,0,0,0,0,0,0,0,0,0,0,0,0,0,0,0,0,0,0,0,0,0],"sum_hessian":[1.2521E4,9.16E3,3.361E3,6.654E3,2.506E3,1.573E3,1.788E3,6.447E3,2.07E2,1.031E3,1.475E3,9.87E2,5.86E2,1.022E3,7.66E2,4.653E3,1.794E3,1.52E2,5.5E1,9.69E2,6.2E1,1.89E2,1.286E3,6.53E2,3.34E2,4.1E2,1.76E2,5.54E2,4.68E2,1.3E1,7.53E2,1.149E3,3.504E3,1.717E3,7.7E1,1E2,5.2E1,4.1E1,1.4E1,3.85E2,5.84E2,5.1E1,1.1E1,6.8E1,1.21E2,5.65E2,7.21E2,5.02E2,1.51E2,3.26E2,8E0,1.42E2,2.68E2,9E0,1.67E2,5.32E2,2.2E1],"tree_param":{"num_deleted":"0","num_feature":"45","num_nodes":"57","size_leaf_vector":"1"}},{"base_weights":[1.17403634E-1,6.8501444E0,-1.9017807E1,9.776695E0,-2.3603864E0,-1.301109E1,-2.5194382E1,1.0619065E1,-7.9078156E-1,2.7418137E0,-1.0000967E1,-7.527596E0,-1.7348701E1,-2.2443182E1,-2.1510897E0,1.1819917E1,6.997622E0,5.349923E0,-1.32143955E1,4.313216E0,-1.5036788E1,-4.172477E0,-1.6566435E1,-5.0209126E0,-1.7867802E1,-1.4371118E1,-2.1810686E1,-2.0313408E1,-2.157178E0,9.5230806E-1,7.11035E-1,2.3452944E-1,7.711449E-1,6.5903085E-1,-2.5812396E-1,-1.3832898E0,-4.613394E-1,8.867477E-2,7.4202204E-1,-5.919942E-1,-1.3047106E0,5.68136E-2,-9.91414E-1,-2.0858593E-2,-1.2847561E0,4.875378E-2,-8.091083E-1,-3.4579176E-1,-1.3578023E0,-1.8701409E-1,-1.1316892E0,-3.0045944E-1,-1.6393151E0,-1.3183253E0,-1.7643696E0],"categories":[],"categories_nodes":[],"categories_segments":[],"categories_sizes":[],"default_left":[0,0,0,0,0,0,0,0,0,0,0,0,0,0,0,0,0,0,0,0,0,0,0,0,0,0,0,0,0,0,0,0,0,0,0,0,0,0,0,0,0,0,0,0,0,0,0,0,0,0,0,0,0,0,0],"id":14,"left_children":[1,3,5,7,9,11,13,15,17,19,21,23,25,27,-1,29,31,33,35,37,39,41,43,45,47,49,51,53,-1,-1,-1,-1,-1,-1,-1,-1,-1,-1,-1,-1,-1,-1,-1,-1,-1,-1,-1,-1,-1,-1,-1,-1,-1,-1,-1],"loss_changes":[1.6243676E6,2.5162362E5,1.1858775E5,6.3103062E4,8.823747E4,3.8784156E4,1.05910625E4,2.77185E4,4.124103E4,3.863668E4,3.3987266E4,1.884814E4,9.3654375E3,8.12625E3,0E0,1.00154375E4,2.129336E4,1.1628012E4,5.6746035E3,2.2205154E4,6.755742E2,2.2477635E4,5.1790234E3,2.099739E4,2.0960938E1,5.828617E3,1.00309375E3,2.7250312E3,0E0,0E0,0E0,0E0,0E0,0E0,0E0,0E0,0E0,0E0,0E0,0E0,0E0,0E0,0E0,0E0,0E0,0E0,0E0,0E0,0E0,0E0,0E0,0E0,0E0,0E0,0E0],"parents":[2147483647,0,0,1,1,2,2,3,3,4,4,5,5,6,6,7,7,8,8,9,9,10,10,11,11,12,12,13,13,15,15,16,16,17,17,18,18,19,19,20,20,21,21,22,22,23,23,24,24,25,25,26,26,27,27],"right_children":[2,4,6,8,10,12,14,16,18,20,22,24,26,28,-1,30,32,34,36,38,40,42,44,46,48,50,52,54,-1,-1,-1,-1,-1,-1,-1,-1,-1,-1,-1,-1,-1,-1,-1,-1,-1,-1,-1,-1,-1,-1,-1,-1,-1,-1,-1],"split_conditions":[1.413076E3,1.505318E2,1.59642E3,9.07178E3,4.7546E1,1.0893413E0,4.8004E1,2.762E0,1.589122E3,8.1664E3,1.110839E0,8.1571E3,1.3811227E0,9.12222E3,-2.1510897E0,4.7484E1,5.21666E2,8.15601E3,5.21608E2,5.53948E2,9.09865E3,8.14941E3,9.04263E3,4.7716E1,2.30948E1,6.42784E2,8.4322E0,1.32E0,-2.157178E0,9.5230806E-1,7.11035E-1,2.3452944E-1,7.711449E-1,6.5903085E-1,-2.5812396E-1,-1.3832898E0,-4.613394E-1,8.867477E-2,7.4202204E-1,-5.919942E-1,-1.3047106E0,5.68136E-2,-9.91414E-1,-2.0858593E-2,-1.2847561E0,4.875378E-2,-8.091083E-1,-3.4579176E-1,-1.3578023E0,-1.8701409E-1,-1.1316892E0,-3.0045944E-1,-1.6393151E0,-1.3183253E0,-1.7643696E0],"split_indices":[30,43,27,11,36,44,36,42,27,16,44,16,44,11,0,36,39,16,39,33,11,16,11,36,23,24,17,44,0,0,0,0,0,0,0,0,0,0,0,0,0,0,0,0,0,0,0,0,0,0,0,0,0,0,0],"split_type":[0,0,0,0,0,0,0,0,0,0,0,0,0,0,0,0,0,0,0,0,0,0,0,0,0,0,0,0,0,0,0,0,0,0,0,0,0,0,0,0,0,0,0,0,0,0,0,0,0,0,0,0,0,0,0],"sum_hessian":[1.2589E4,9.317E3,3.272E3,7.07E3,2.247E3,1.674E3,1.598E3,6.548E3,5.22E2,1.351E3,8.96E2,7.51E2,9.23E2,9.67E2,6.31E2,4.901E3,1.647E3,3.53E2,1.69E2,1.248E3,1.03E2,4.83E2,4.13E2,6.16E2,1.35E2,5.78E2,3.45E2,7.62E2,2.05E2,3.329E3,1.572E3,7.83E2,8.64E2,2.52E2,1.01E2,8.6E1,8.3E1,8.14E2,4.34E2,3.8E1,6.5E1,3.2E2,1.63E2,1.9E1,3.94E2,3.18E2,2.98E2,8E0,1.27E2,4.3E1,5.35E2,8E0,3.37E2,4.75E2,2.87E2],"tree_param":{"num_deleted":"0","num_feature":"45","num_nodes":"55","size_leaf_vector":"1"}},{"base_weights":[-1.1442011E-1,6.6780424E0,-1.698862E1,-6.702055E0,8.257633E0,-5.780004E0,-2.041557E1,3.1320624E0,-1.0338499E1,8.908029E0,-9.119545E0,-8.660162E0,1.7093754E0,-1.6376421E1,-2.4452501E1,6.903421E0,-3.114035E0,-1.4365317E1,-6.1578517E0,1.1128688E1,5.7549753E0,2.2743301E-1,-1.2479996E1,-6.212692E0,-1.4770073E1,1.2909604E1,-1.1145935E0,-1.4824597E1,-1.7712349E0,-1.6531202E0,-2.0483112E0,6.317116E-1,-6.418514E-1,-9.490758E-1,1.0097044E-1,-4.0652317E-1,-1.1496235E0,-2.2672708E-1,-9.836053E-1,8.4818476E-1,2.1693306E-1,1.11349255E-1,6.0816276E-1,3.1353924E-1,-2.8298318E-1,-6.1556673E-1,-1.2032318E0,-1.3397188E-1,-7.0890224E-1,-1.2676454E0,-3.3077613E-1,1.3501731E0,4.5169392E-1,5.324723E-1,-3.1724444E-1,-9.638173E-1,-1.4382217E0],"categories":[],"categories_nodes":[],"categories_segments":[],"categories_sizes":[],"default_left":[0,0,0,0,0,0,0,0,0,0,0,0,0,0,0,0,0,0,0,0,0,0,0,0,0,0,0,0,0,0,0,0,0,0,0,0,0,0,0,0,0,0,0,0,0,0,0,0,0,0,0,0,0,0,0,0,0],"id":15,"left_children":[1,3,5,7,9,11,13,15,17,19,21,23,25,27,29,31,33,35,37,39,41,43,45,47,49,51,53,55,-1,-1,-1,-1,-1,-1,-1,-1,-1,-1,-1,-1,-1,-1,-1,-1,-1,-1,-1,-1,-1,-1,-1,-1,-1,-1,-1,-1,-1],"loss_changes":[1.4483272E6,1.9095316E5,1.3816369E5,3.452355E4,9.1907375E4,1.875113E4,4.136175E4,6.465135E3,1.0940055E4,5.3831688E4,9.314785E3,8.453855E3,7.9726406E3,1.30806875E4,3.4193125E3,4.9504043E3,4.791833E3,2.7137734E3,7.5532295E3,1.1245375E4,3.3530258E4,1.5734744E3,2.1059922E3,6.6555938E3,3.3768633E3,7.5755176E2,5.7189575E3,7.5747812E3,0E0,0E0,0E0,0E0,0E0,0E0,0E0,0E0,0E0,0E0,0E0,0E0,0E0,0E0,0E0,0E0,0E0,0E0,0E0,0E0,0E0,0E0,0E0,0E0,0E0,0E0,0E0,0E0,0E0],"parents":[2147483647,0,0,1,1,2,2,3,3,4,4,5,5,6,6,7,7,8,8,9,9,10,10,11,11,12,12,13,13,14,14,15,15,16,16,17,17,18,18,19,19,20,20,21,21,22,22,23,23,24,24,25,25,26,26,27,27],"right_children":[2,4,6,8,10,12,14,16,18,20,22,24,26,28,30,32,34,36,38,40,42,44,46,48,50,52,54,56,-1,-1,-1,-1,-1,-1,-1,-1,-1,-1,-1,-1,-1,-1,-1,-1,-1,-1,-1,-1,-1,-1,-1,-1,-1,-1,-1,-1,-1],"split_conditions":[6.507E0,5.53E2,4.7622E1,6.42802E2,9.0804E3,5.21704E2,4.7878E1,3.8108E0,5.2089E2,1.9426E0,1.588036E3,4.6991488E-1,8.13781E3,9.10641E3,4.8034E1,9.06781E3,1.41135E3,6.4272E2,8.14677E3,9.07271E3,4.3E-1,8.16062E3,9.09059E3,1.0415391E0,6.47E0,5.53724E2,1.402052E3,1.3646567E0,-1.7712349E0,-1.6531202E0,-2.0483112E0,6.317116E-1,-6.418514E-1,-9.490758E-1,1.0097044E-1,-4.0652317E-1,-1.1496235E0,-2.2672708E-1,-9.836053E-1,8.4818476E-1,2.1693306E-1,1.11349255E-1,6.0816276E-1,3.1353924E-1,-2.8298318E-1,-6.1556673E-1,-1.2032318E0,-1.3397188E-1,-7.0890224E-1,-1.2676454E0,-3.3077613E-1,1.3501731E0,4.5169392E-1,5.324723E-1,-3.1724444E-1,-9.638173E-1,-1.4382217E0],"split_indices":[42,33,36,24,11,39,36,42,14,42,27,34,16,11,36,11,6,4,16,11,32,16,11,44,32,33,30,44,0,0,0,0,0,0,0,0,0,0,0,0,0,0,0,0,0,0,0,0,0,0,0,0,0,0,0,0,0],"split_type":[0,0,0,0,0,0,0,0,0,0,0,0,0,0,0,0,0,0,0,0,0,0,0,0,0,0,0,0,0,0,0,0,0,0,0,0,0,0,0,0,0,0,0,0,0,0,0,0,0,0,0,0,0,0,0,0,0],"sum_hessian":[1.2617E4,9E3,3.617E3,9.47E2,8.053E3,8.53E2,2.764E3,2.56E2,6.91E2,7.767E3,2.86E2,6.15E2,2.38E2,1.406E3,1.358E3,1.59E2,9.7E1,3.4E2,3.51E2,4.543E3,3.224E3,7.8E1,2.08E2,4.53E2,1.62E2,4.1E1,1.97E2,1.189E3,2.17E2,8.54E2,5.04E2,1.48E2,1.1E1,2.5E1,7.2E1,4.5E1,2.95E2,2.54E2,9.7E1,4.374E3,1.69E2,1.183E3,2.041E3,3.9E1,3.9E1,1.13E2,9.5E1,2.02E2,2.51E2,1.27E2,3.5E1,1.4E1,2.7E1,5.1E1,1.46E2,8.76E2,3.13E2],"tree_param":{"num_deleted":"0","num_feature":"45","num_nodes":"57","size_leaf_vector":"1"}},{"base_weights":[3.822351E-2,5.3094134E0,-1.7920528E1,9.117523E0,-1.2569703E0,-1.3257641E1,-2.2099308E1,9.643963E0,-1.4279999E0,4.666129E0,-6.0982347E0,-6.285668E0,-1.5541545E1,-1.7220924E1,-1.7253126E0,1.0305307E1,4.902571E0,-6.5781674E0,7.5251083E0,5.5906873E0,-9.927163E-1,-3.9287694E0,-1.3277417E1,7.6253456E-1,-7.5156283E0,-1.4171572E1,-1.6863371E0,-3.5835406E-1,-1.7546015E1,8.345806E-1,5.7076585E-1,4.9404427E-1,-4.3584698E-1,-1.5654334E-1,-8.9939547E-1,-1.9293934E-1,6.6399693E-1,7.4569786E-1,1.9684556E-1,-1.8309823E-1,-1.0859406E0,-1.0328066E0,3.161598E-1,-7.191173E-1,1.146541E-1,2.7840772E-1,-1.0689996E0,-2.619915E-1,-1.3199773E0],"categories":[],"categories_nodes":[],"categories_segments":[],"categories_sizes":[],"default_left":[0,0,0,0,0,0,0,0,0,0,0,0,0,0,0,0,0,0,0,0,0,0,0,0,0,0,0,0,0,0,0,0,0,0,0,0,0,0,0,0,0,0,0,0,0,0,0,0,0],"id":16,"left_children":[1,3,5,7,9,11,13,15,17,19,21,23,25,27,-1,29,31,33,35,37,-1,39,41,-1,43,45,-1,-1,47,-1,-1,-1,-1,-1,-1,-1,-1,-1,-1,-1,-1,-1,-1,-1,-1,-1,-1,-1,-1],"loss_changes":[1.1929854E6,2.4373103E5,5.2892375E4,3.4373844E4,1.0306505E5,2.0960625E4,4.6435E3,1.79355E4,1.438569E4,2.7721844E4,3.0281375E4,7.992412E3,7.0454688E3,4.915625E2,0E0,1.1912875E4,1.4373346E4,4.6275215E3,1.8848394E3,2.0006879E4,0E0,2.3605064E4,5.7639375E3,0E0,6.802629E3,4.4310938E3,0E0,0E0,5.119922E2,0E0,0E0,0E0,0E0,0E0,0E0,0E0,0E0,0E0,0E0,0E0,0E0,0E0,0E0,0E0,0E0,0E0,0E0,0E0,0E0],"parents":[2147483647,0,0,1,1,2,2,3,3,4,4,5,5,6,6,7,7,8,8,9,9,10,10,11,11,12,12,13,13,15,15,16,16,17,17,18,18,19,19,21,21,22,22,24,24,25,25,28,28],"right_children":[2,4,6,8,10,12,14,16,18,20,22,24,26,28,-1,30,32,34,36,38,-1,40,42,-1,44,46,-1,-1,48,-1,-1,-1,-1,-1,-1,-1,-1,-1,-1,-1,-1,-1,-1,-1,-1,-1,-1,-1,-1],"split_conditions":[6.42956E2,9.17796E1,1.10394E1,9.07368E3,8.4353E0,1.592896E3,8.4773E0,6.42748E2,5.22132E2,9.08954E3,8.699E0,5.500682E-1,9.104E3,-1.05E0,-1.7253126E0,1.0478253E0,4.1716E0,4.7412E1,5.2198E2,6.4237E2,-9.927163E-1,8.16062E3,2.33886E1,7.6253456E-1,4.19E0,6.7700654E-1,-1.6863371E0,-3.5835406E-1,7.712942E-1,8.345806E-1,5.7076585E-1,4.9404427E-1,-4.3584698E-1,-1.5654334E-1,-8.9939547E-1,-1.9293934E-1,6.6399693E-1,7.4569786E-1,1.9684556E-1,-1.8309823E-1,-1.0859406E0,-1.0328066E0,3.161598E-1,-7.191173E-1,1.146541E-1,2.7840772E-1,-1.0689996E0,-2.619915E-1,-1.3199773E0],"split_indices":[24,43,42,11,17,27,17,24,39,11,42,44,11,35,0,44,42,36,14,24,0,16,23,0,32,44,0,0,44,0,0,0,0,0,0,0,0,0,0,0,0,0,0,0,0,0,0,0,0],"split_type":[0,0,0,0,0,0,0,0,0,0,0,0,0,0,0,0,0,0,0,0,0,0,0,0,0,0,0,0,0,0,0,0,0,0,0,0,0,0,0,0,0,0,0,0,0,0,0,0,0],"sum_hessian":[1.2583E4,9.733E3,2.85E3,6.158E3,3.575E3,1.366E3,1.484E3,5.866E3,2.92E2,1.608E3,1.967E3,3.46E2,1.02E3,3.16E2,1.168E3,5.138E3,7.28E2,1.87E2,1.05E2,1.536E3,7.2E1,1.522E3,4.45E2,1.9E1,3.27E2,8.81E2,1.39E2,1.2E1,3.04E2,3.743E3,1.395E3,6.29E2,9.9E1,1.11E2,7.6E1,1.2E1,9.3E1,6E2,9.36E2,1.35E3,1.72E2,4.31E2,1.4E1,2.63E2,6.4E1,1E1,8.71E2,8E0,2.96E2],"tree_param":{"num_deleted":"0","num_feature":"45","num_nodes":"49","size_leaf_vector":"1"}},{"base_weights":[-1.744324E-2,5.5750127E0,-1.5130285E1,8.105427E0,-9.2928225E-1,-1.788579E1,-5.3373675E0,8.682911E0,-1.1248744E0,6.754234E0,-4.339802E0,-1.4937942E1,-2.1857904E1,1.5378779E0,-9.63289E0,9.090252E0,-6.800543E-1,7.615346E0,-6.9751735E0,1.4386487E1,5.3647785E0,-2.2529247E0,-1.1698621E1,-1.2985494E1,-1.8683416E1,-1.0280059E1,-1.639576E0,5.7274723E0,-3.2091868E0,-7.394197E0,-1.5441121E0,7.50693E-1,5.1188725E-1,-4.546326E-1,5.7196325E-1,7.9180604E-1,-8.286647E-1,-6.921651E-1,7.256325E-1,-1.134643E-1,1.1638397E0,-4.150754E-2,5.8525276E-1,-7.962754E-2,-9.2920613E-1,-1.203684E-1,-9.442327E-1,-8.515533E-1,-1.3216925E0,-1.3980144E0,-2.7083802E-1,-8.736983E-1,-1.3277669E-1,2.463241E-1,9.9348676E-1,-3.5041845E-1,7.1502E-1,-6.1159986E-1,4.8839813E-1],"categories":[],"categories_nodes":[],"categories_segments":[],"categories_sizes":[],"default_left":[0,0,0,0,0,0,0,0,0,0,0,0,0,0,0,0,0,0,0,0,0,0,0,0,0,0,0,0,0,0,0,0,0,0,0,0,0,0,0,0,0,0,0,0,0,0,0,0,0,0,0,0,0,0,0,0,0,0,0],"id":17,"left_children":[1,3,5,7,9,11,13,15,17,19,21,23,25,27,29,31,33,35,37,39,41,43,45,47,49,51,-1,53,55,57,-1,-1,-1,-1,-1,-1,-1,-1,-1,-1,-1,-1,-1,-1,-1,-1,-1,-1,-1,-1,-1,-1,-1,-1,-1,-1,-1,-1,-1],"loss_changes":[1.0600466E6,1.507456E5,9.049069E4,3.523075E4,6.7697766E4,2.77565E4,2.2518904E4,2.3724562E4,2.0793322E4,7.680703E3,2.7197082E4,8.96075E3,1.039875E3,6.1367827E3,1.0228207E4,1.2765125E4,1.2701062E4,1.0568099E4,1.0475264E4,2.6630098E3,1.0341713E4,1.6891355E4,3.8941719E3,5.6353125E3,6.306719E2,3.2624414E2,0E0,2.5701577E3,3.2966997E3,5.353574E3,0E0,0E0,0E0,0E0,0E0,0E0,0E0,0E0,0E0,0E0,0E0,0E0,0E0,0E0,0E0,0E0,0E0,0E0,0E0,0E0,0E0,0E0,0E0,0E0,0E0,0E0,0E0,0E0,0E0],"parents":[2147483647,0,0,1,1,2,2,3,3,4,4,5,5,6,6,7,7,8,8,9,9,10,10,11,11,12,12,13,13,14,14,15,15,16,16,17,17,18,18,19,19,20,20,21,21,22,22,23,23,24,24,25,25,27,27,28,28,29,29],"right_children":[2,4,6,8,10,12,14,16,18,20,22,24,26,28,30,32,34,36,38,40,42,44,46,48,50,52,-1,54,56,58,-1,-1,-1,-1,-1,-1,-1,-1,-1,-1,-1,-1,-1,-1,-1,-1,-1,-1,-1,-1,-1,-1,-1,-1,-1,-1,-1,-1,-1],"split_conditions":[6.8396E0,1.142702E2,5.21212E2,6.4287E2,6.42484E2,1.597804E3,8.435E0,9.07445E3,1.410362E3,8.13543E3,1.5937E3,1.3646567E0,8.7168723E-1,1.406816E3,9.10641E3,1.99E0,5.22078E2,9.06396E3,5.53348E2,1.3164346E-1,5.5388E2,9.08255E3,2.6256E0,9.09335E3,3.889E1,5.20566E2,-1.639576E0,5.153992E2,1.41965E3,6.1672497E0,-1.5441121E0,7.50693E-1,5.1188725E-1,-4.546326E-1,5.7196325E-1,7.9180604E-1,-8.286647E-1,-6.921651E-1,7.256325E-1,-1.134643E-1,1.1638397E0,-4.150754E-2,5.8525276E-1,-7.962754E-2,-9.2920613E-1,-1.203684E-1,-9.442327E-1,-8.515533E-1,-1.3216925E0,-1.3980144E0,-2.7083802E-1,-8.736983E-1,-1.3277669E-1,2.463241E-1,9.9348676E-1,-3.5041845E-1,7.1502E-1,-6.1159986E-1,4.8839813E-1],"split_indices":[42,43,39,24,24,27,17,11,30,16,27,44,44,30,11,42,39,11,33,40,33,11,42,11,22,39,0,43,6,31,0,0,0,0,0,0,0,0,0,0,0,0,0,0,0,0,0,0,0,0,0,0,0,0,0,0,0,0,0],"split_type":[0,0,0,0,0,0,0,0,0,0,0,0,0,0,0,0,0,0,0,0,0,0,0,0,0,0,0,0,0,0,0,0,0,0,0,0,0,0,0,0,0,0,0,0,0,0,0,0,0,0,0,0,0,0,0,0,0,0,0],"sum_hessian":[1.2523E4,9.145E3,3.378E3,6.582E3,2.563E3,2.63E3,7.48E2,6.195E3,3.87E2,7.85E2,1.778E3,1.536E3,1.094E3,2.9E2,4.58E2,5.937E3,2.58E2,1.54E2,2.33E2,1.07E2,6.78E2,1.395E3,3.83E2,1.038E3,4.98E2,3.2E1,1.062E3,1.53E2,1.37E2,3.95E2,6.3E1,4.008E3,1.929E3,1.58E2,1E2,1.36E2,1.8E1,2.08E2,2.5E1,8E0,9.9E1,2.05E2,4.73E2,1.261E3,1.34E2,3.8E1,3.45E2,8.17E2,2.21E2,4.9E2,8E0,2.4E1,8E0,1.27E2,2.6E1,1.28E2,9E0,3.76E2,1.9E1],"tree_param":{"num_deleted":"0","num_feature":"45","num_nodes":"59","size_leaf_vector":"1"}},{"base_weights":[-2.0773388E-1,5.155325E0,-1.3479368E1,7.044368E0,-2.3690915E0,-4.6708264E0,-1.6537848E1,7.5275187E0,-6.9521427E0,-7.446553E0,2.4788306E0,-7.5657606E0,3.2973833E0,-1.4052005E1,-2.0695242E1,8.835427E0,4.257032E0,-3.633412E0,-1.1495679E1,-8.0524606E-1,-9.682882E0,4.9564786E0,-1.2197634E1,-9.631812E0,1.53785E0,1.3295579E0,1.4319631E1,-1.2719262E1,-1.5070515E0,-1.5710595E0,-1.29932375E1,7.5733566E-1,5.191996E-1,7.3369706E-1,1.352664E-1,1.6374463E-1,-4.024516E-1,-2.4903938E-1,-9.559546E-1,1.039E-1,-7.4436593E-1,-9.343456E-1,-3.0191228E-1,8.452963E-1,2.566765E-1,3.597708E-1,-1.040666E0,-1.1219316E0,-3.6330983E-1,-2.764146E-1,7.6320475E-1,6.4270973E-1,-2.1035902E-1,1.3713695E0,-5.563874E-2,-1.3539567E0,-8.1004757E-1,-1.0706811E0,-3.423175E-1],"categories":[],"categories_nodes":[],"categories_segments":[],"categories_sizes":[],"default_left":[0,0,0,0,0,0,0,0,0,0,0,0,0,0,0,0,0,0,0,0,0,0,0,0,0,0,0,0,0,0,0,0,0,0,0,0,0,0,0,0,0,0,0,0,0,0,0,0,0,0,0,0,0,0,0,0,0,0,0],"id":18,"left_children":[1,3,5,7,9,11,13,15,17,19,21,23,25,27,29,31,33,35,37,39,41,43,45,47,49,51,53,55,-1,-1,57,-1,-1,-1,-1,-1,-1,-1,-1,-1,-1,-1,-1,-1,-1,-1,-1,-1,-1,-1,-1,-1,-1,-1,-1,-1,-1,-1,-1],"loss_changes":[9.050857E5,1.2889197E5,9.7846375E4,4.9475625E4,4.5092254E4,2.2308195E4,2.5227E4,2.9598312E4,3.314706E3,1.3196137E4,3.4786582E4,1.3396922E4,5.4896636E3,1.19453125E4,1.1100625E3,1.1927469E4,2.7524402E4,1.7574465E3,7.128125E2,4.937061E3,1.0433777E4,7.435877E3,4.998676E3,1.4261207E4,6.761547E3,7.350147E3,2.5665127E3,1.2500219E4,0E0,0E0,3.8040723E2,0E0,0E0,0E0,0E0,0E0,0E0,0E0,0E0,0E0,0E0,0E0,0E0,0E0,0E0,0E0,0E0,0E0,0E0,0E0,0E0,0E0,0E0,0E0,0E0,0E0,0E0,0E0,0E0],"parents":[2147483647,0,0,1,1,2,2,3,3,4,4,5,5,6,6,7,7,8,8,9,9,10,10,11,11,12,12,13,13,14,14,15,15,16,16,17,17,18,18,19,19,20,20,21,21,22,22,23,23,24,24,25,25,26,26,27,27,30,30],"right_children":[2,4,6,8,10,12,14,16,18,20,22,24,26,28,30,32,34,36,38,40,42,44,46,48,50,52,54,56,-1,-1,58,-1,-1,-1,-1,-1,-1,-1,-1,-1,-1,-1,-1,-1,-1,-1,-1,-1,-1,-1,-1,-1,-1,-1,-1,-1,-1,-1,-1],"split_conditions":[6.507E0,6.42756E2,6.42832E2,9.0804E3,5.21146E2,5.21682E2,1.4525839E0,7.0218E1,9.09059E3,2.3534E0,8.14609E3,5.842112E2,5.06798E2,9.11247E3,2.32504E1,9.219948E-1,9.05632E3,6.42392E2,4.733E1,8.14406E3,8.3E-1,5.500682E-1,1.40644E3,1.41252E3,1.0521407E-1,6.42308E2,4.304881E-1,5.20276E2,-1.5070515E0,-1.5710595E0,3.879E1,7.5733566E-1,5.191996E-1,7.3369706E-1,1.352664E-1,1.6374463E-1,-4.024516E-1,-2.4903938E-1,-9.559546E-1,1.039E-1,-7.4436593E-1,-9.343456E-1,-3.0191228E-1,8.452963E-1,2.566765E-1,3.597708E-1,-1.040666E0,-1.1219316E0,-3.6330983E-1,-2.764146E-1,7.6320475E-1,6.4270973E-1,-2.1035902E-1,1.3713695E0,-5.563874E-2,-1.3539567E0,-8.1004757E-1,-1.0706811E0,-3.423175E-1],"split_indices":[42,24,24,11,39,39,44,43,11,42,16,43,43,11,23,44,11,24,13,16,32,44,30,6,37,24,34,39,0,0,22,0,0,0,0,0,0,0,0,0,0,0,0,0,0,0,0,0,0,0,0,0,0,0,0,0,0,0,0],"split_type":[0,0,0,0,0,0,0,0,0,0,0,0,0,0,0,0,0,0,0,0,0,0,0,0,0,0,0,0,0,0,0,0,0,0,0,0,0,0,0,0,0,0,0,0,0,0,0,0,0,0,0,0,0,0,0,0,0,0,0],"sum_hessian":[1.2697E4,9.047E3,3.65E3,7.232E3,1.815E3,9.47E2,2.703E3,6.995E3,2.37E2,8.84E2,9.31E2,6.95E2,2.52E2,1.718E3,9.85E2,4.985E3,2.01E3,1.47E2,9E1,2.26E2,6.58E2,8.02E2,1.29E2,5.66E2,1.29E2,2.23E2,2.9E1,1.441E3,2.77E2,9.1E2,7.5E1,2.821E3,2.164E3,5.97E2,1.413E3,3.4E1,1.13E2,1.8E1,7.2E1,1.89E2,3.7E1,4.25E2,2.33E2,1.39E2,6.63E2,1.1E1,1.18E2,2.52E2,3.14E2,8.4E1,4.5E1,7.7E1,1.46E2,2.1E1,8E0,3.31E2,1.11E3,5.8E1,1.7E1],"tree_param":{"num_deleted":"0","num_feature":"45","num_nodes":"59","size_leaf_vector":"1"}},{"base_weights":[-8.419868E-2,5.219609E0,-1.1723763E1,6.362237E0,-3.8524632E0,-1.6864985E1,-6.445375E0,8.112207E0,3.6632938E0,1.5072622E0,-7.8180776E0,-1.521687E1,-1.5502625E0,1.678891E0,-8.726797E0,8.439813E0,1.6786971E0,1.9123615E0,9.789425E0,4.172376E0,-8.563172E0,2.8417194E-1,-9.745664E0,-1.38735E1,-1.4399487E0,7.2248964E0,-2.8290153E0,-7.534873E0,-1.4281098E0,7.693657E-1,5.810724E-1,-3.553138E-1,4.6101877E-1,-3.4516618E-1,2.6887107E-1,7.736653E-1,-6.708919E-2,5.3146654E-1,-3.1343982E-1,-1.9727366E-2,-7.9102284E-1,-3.6192387E-1,5.336805E-1,-4.0518934E-1,-8.5652333E-1,-8.776467E-1,-1.2233751E0,6.5003043E-1,-2.4775441E-1,4.6852943E-1,-5.0143176E-1,-2.7282852E-1,-7.226834E-1],"categories":[],"categories_nodes":[],"categories_segments":[],"categories_sizes":[],"default_left":[0,0,0,0,0,0,0,0,0,0,0,0,0,0,0,0,0,0,0,0,0,0,0,0,0,0,0,0,0,0,0,0,0,0,0,0,0,0,0,0,0,0,0,0,0,0,0,0,0,0,0,0,0],"id":19,"left_children":[1,3,5,7,9,11,13,15,17,19,21,23,-1,25,27,29,31,33,35,37,39,41,43,45,-1,47,49,51,-1,-1,-1,-1,-1,-1,-1,-1,-1,-1,-1,-1,-1,-1,-1,-1,-1,-1,-1,-1,-1,-1,-1,-1,-1],"loss_changes":[7.8780056E5,9.111158E4,1.073535E5,3.650325E4,2.1084932E4,1.03688125E4,3.696415E4,9.8054375E3,3.287327E4,1.1821295E4,8.908641E3,5.6895938E3,0E0,1.1288901E4,1.8089805E4,4.456125E3,7.3539873E3,2.7268246E4,4.7941523E3,8.96187E3,1.5889888E3,4.5749824E3,2.9422148E3,4.247203E3,0E0,3.5667656E3,9.465718E3,1.1678656E4,0E0,0E0,0E0,0E0,0E0,0E0,0E0,0E0,0E0,0E0,0E0,0E0,0E0,0E0,0E0,0E0,0E0,0E0,0E0,0E0,0E0,0E0,0E0,0E0,0E0],"parents":[2147483647,0,0,1,1,2,2,3,3,4,4,5,5,6,6,7,7,8,8,9,9,10,10,11,11,13,13,14,14,15,15,16,16,17,17,18,18,19,19,20,20,21,21,22,22,23,23,25,25,26,26,27,27],"right_children":[2,4,6,8,10,12,14,16,18,20,22,24,-1,26,28,30,32,34,36,38,40,42,44,46,-1,48,50,52,-1,-1,-1,-1,-1,-1,-1,-1,-1,-1,-1,-1,-1,-1,-1,-1,-1,-1,-1,-1,-1,-1,-1,-1,-1],"split_conditions":[5.9224E0,4.7634E1,5.52666E2,2.0308E0,6.4287E2,4.8024E1,8.4292E0,8.15207E3,5.54196E2,8.14338E3,1.591118E3,8.17882E3,-1.5502625E0,9.06141E3,9.11247E3,4.7248E1,5.2207E2,-2.95E0,6.42464E2,2.38816E3,9.06638E3,5.21098E2,6.42962E2,1.3268113E0,-1.4399487E0,9.4644E0,4.7362E1,1.0232208E0,-1.4281098E0,7.693657E-1,5.810724E-1,-3.553138E-1,4.6101877E-1,-3.4516618E-1,2.6887107E-1,7.736653E-1,-6.708919E-2,5.3146654E-1,-3.1343982E-1,-1.9727366E-2,-7.9102284E-1,-3.6192387E-1,5.336805E-1,-4.0518934E-1,-8.5652333E-1,-8.776467E-1,-1.2233751E0,6.5003043E-1,-2.4775441E-1,4.6852943E-1,-5.0143176E-1,-2.7282852E-1,-7.226834E-1],"split_indices":[42,36,33,42,24,36,17,16,33,16,27,16,0,11,11,36,39,32,24,15,11,39,24,44,0,42,36,44,0,0,0,0,0,0,0,0,0,0,0,0,0,0,0,0,0,0,0,0,0,0,0,0,0],"split_type":[0,0,0,0,0,0,0,0,0,0,0,0,0,0,0,0,0,0,0,0,0,0,0,0,0,0,0,0,0,0,0,0,0,0,0,0,0,0,0,0,0,0,0,0,0,0,0,0,0,0,0,0,0],"sum_hessian":[1.2742E4,8.757E3,3.985E3,7.78E3,9.77E2,2.008E3,1.977E3,4.708E3,3.072E3,4.18E2,5.59E2,1.459E3,5.49E2,4.34E2,1.543E3,4.477E3,2.31E2,2.399E3,6.73E2,3.35E2,8.3E1,1.09E2,4.5E2,1.137E3,3.22E2,1.92E2,2.42E2,1.401E3,1.42E2,1.027E3,3.45E3,9.5E1,1.36E2,4.93E2,1.906E3,6.35E2,3.8E1,2.48E2,8.7E1,1.9E1,6.4E1,6.4E1,4.5E1,1.45E2,3.05E2,6.7E2,4.67E2,1.69E2,2.3E1,7.1E1,1.71E2,5.2E2,8.81E2],"tree_param":{"num_deleted":"0","num_feature":"45","num_nodes":"53","size_leaf_vector":"1"}},{"base_weights":[-1.6730906E-1,-1.2994593E1,3.9426365E0,-9.271441E0,-1.643005E1,6.153492E0,-2.8184884E0,-1.3187608E1,-6.77438E0,-1.4608448E1,-1.8615612E1,6.9575486E0,1.1529343E-1,-5.9177394E0,3.0733294E0,-1.4058932E1,-7.595317E0,-5.3283997E0,-1.490858E1,-1.3395754E1,-1.2875037E0,-1.387893E0,-3.391775E-1,6.1436257E0,9.36903E0,-9.016584E0,4.845202E0,-1.1942999E1,-3.7634099E0,9.670224E0,-1.3428158E-1,-7.499417E-1,-1.131408E0,9.347102E-2,-6.8399596E-1,-2.28911E-1,-8.0773115E-1,-1.1430974E0,-2.30973E-1,-1.0333678E0,-5.7717746E-1,6.892081E-1,3.8823104E-1,7.0130116E-1,1.4146036E-1,-8.331917E-2,-8.307271E-1,5.623028E-1,2.4218602E-2,-1.0811582E0,-4.425752E-1,-9.7431056E-2,-7.277538E-1,-1.0862779E-1,7.808285E-1,2.7113876E-1,-4.8814064E-1],"categories":[],"categories_nodes":[],"categories_segments":[],"categories_sizes":[],"default_left":[0,0,0,0,0,0,0,0,0,0,0,0,0,0,0,0,0,0,0,0,0,0,0,0,0,0,0,0,0,0,0,0,0,0,0,0,0,0,0,0,0,0,0,0,0,0,0,0,0,0,0,0,0,0,0,0,0],"id":20,"left_children":[1,3,5,7,9,11,13,15,17,19,21,23,25,27,29,31,33,35,37,39,-1,-1,-1,41,43,45,47,49,51,53,55,-1,-1,-1,-1,-1,-1,-1,-1,-1,-1,-1,-1,-1,-1,-1,-1,-1,-1,-1,-1,-1,-1,-1,-1,-1,-1],"loss_changes":[6.6300106E5,3.756147E4,1.4254067E5,1.3674305E4,3.6438438E3,3.4853875E4,4.315363E4,1.7390391E3,1.0142781E4,7.730781E2,1.40125E2,1.18806875E4,3.7291887E4,1.9627996E4,1.7315055E4,7.833828E2,1.5214888E3,9.684832E3,3.4020117E2,9.815625E2,0E0,0E0,0E0,1.3164031E4,8.697656E2,4.962086E3,7.010206E3,5.5031133E3,1.6958473E4,2.7124004E3,1.3913226E4,0E0,0E0,0E0,0E0,0E0,0E0,0E0,0E0,0E0,0E0,0E0,0E0,0E0,0E0,0E0,0E0,0E0,0E0,0E0,0E0,0E0,0E0,0E0,0E0,0E0,0E0],"parents":[2147483647,0,0,1,1,2,2,3,3,4,4,5,5,6,6,7,7,8,8,9,9,10,10,11,11,12,12,13,13,14,14,15,15,16,16,17,17,18,18,19,19,23,23,24,24,25,25,26,26,27,27,28,28,29,29,30,30],"right_children":[2,4,6,8,10,12,14,16,18,20,22,24,26,28,30,32,34,36,38,40,-1,-1,-1,42,44,46,48,50,52,54,56,-1,-1,-1,-1,-1,-1,-1,-1,-1,-1,-1,-1,-1,-1,-1,-1,-1,-1,-1,-1,-1,-1,-1,-1,-1,-1],"split_conditions":[5.52912E2,1.07034E1,4.607E0,5.2061E2,1.51E0,9.06988E3,5.53658E2,2.32467E1,8.16318E3,1.424836E3,2.3284E1,5.54206E2,5.21758E2,-1.59E0,8.14075E3,1.03E0,4.767E1,1.2198071E0,7.228508E2,1.207077E3,-1.2875037E0,-1.387893E0,-3.391775E-1,5.820653E-1,4.75E1,8.14723E3,6.4237E2,4.63796E2,8.15235E3,2.9132E0,6.42464E2,-7.499417E-1,-1.131408E0,9.347102E-2,-6.8399596E-1,-2.28911E-1,-8.0773115E-1,-1.1430974E0,-2.30973E-1,-1.0333678E0,-5.7717746E-1,6.892081E-1,3.8823104E-1,7.0130116E-1,1.4146036E-1,-8.331917E-2,-8.307271E-1,5.623028E-1,2.4218602E-2,-1.0811582E0,-4.425752E-1,-9.7431056E-2,-7.277538E-1,-1.0862779E-1,7.808285E-1,2.7113876E-1,-4.8814064E-1],"split_indices":[33,42,42,14,44,11,33,23,16,30,23,33,39,32,16,44,13,44,43,43,0,0,0,44,13,16,24,43,16,43,24,0,0,0,0,0,0,0,0,0,0,0,0,0,0,0,0,0,0,0,0,0,0,0,0,0,0],"split_type":[0,0,0,0,0,0,0,0,0,0,0,0,0,0,0,0,0,0,0,0,0,0,0,0,0,0,0,0,0,0,0,0,0,0,0,0,0,0,0,0,0,0,0,0,0,0,0,0,0,0,0,0,0,0,0,0,0],"sum_hessian":[1.2557E4,3.042E3,9.515E3,1.477E3,1.565E3,7.171E3,2.344E3,5.59E2,9.18E2,8.94E2,6.71E2,6.327E3,8.44E2,1.536E3,8.08E2,4.71E2,8.8E1,7.93E2,1.25E2,6.6E2,2.34E2,6.63E2,8E0,4.756E3,1.571E3,2.85E2,5.59E2,3.93E2,1.143E3,2.58E2,5.5E2,1.31E2,3.4E2,1.4E1,7.4E1,5.76E2,2.17E2,1.17E2,8E0,5.89E2,7.1E1,1.044E3,3.712E3,1.55E3,2.1E1,6.5E1,2.2E2,3.44E2,2.15E2,2.63E2,1.3E2,8.22E2,3.21E2,1.8E1,2.4E2,3.49E2,2.01E2],"tree_param":{"num_deleted":"0","num_feature":"45","num_nodes":"57","size_leaf_vector":"1"}},{"base_weights":[-4.23247E-2,4.428475E0,-1.0411128E1,5.117435E0,-7.910017E0,-1.4132665E1,-5.5511045E0,6.5261135E0,1.8880341E0,-4.62386E0,-1.4910866E1,-1.6676262E1,-1.16865225E1,-2.654367E0,-1.20797415E1,8.03545E0,4.85344E0,-1.1354431E0,5.9224606E0,-7.65535E0,-1.6467777E0,-2.772272E-1,-1.1341373E0,-1.5036716E1,-1.3694009E0,-1.0186836E1,-1.1636614E0,9.423811E-1,-6.898273E0,-9.941008E0,-1.3216951E0,6.1462563E-1,3.0814225E-3,2.6577857E-1,6.8927985E-1,1.764451E-1,-3.4340277E-1,6.571784E-1,2.8093895E-1,-7.1750814E-1,-2.785591E-1,4.6609446E-2,-4.5799968E-1,-3.246143E-1,-1.1231815E0,-5.7486E-1,-9.5516586E-1,3.874773E-1,-1.5284139E-1,2.5631362E-1,-5.969078E-1,-8.140746E-1,-4.5904344E-1],"categories":[],"categories_nodes":[],"categories_segments":[],"categories_sizes":[],"default_left":[0,0,0,0,0,0,0,0,0,0,0,0,0,0,0,0,0,0,0,0,0,0,0,0,0,0,0,0,0,0,0,0,0,0,0,0,0,0,0,0,0,0,0,0,0,0,0,0,0,0,0,0,0],"id":21,"left_children":[1,3,5,7,9,11,13,15,17,19,21,23,25,27,29,31,33,35,37,39,41,-1,-1,43,-1,45,-1,47,49,51,-1,-1,-1,-1,-1,-1,-1,-1,-1,-1,-1,-1,-1,-1,-1,-1,-1,-1,-1,-1,-1,-1,-1],"loss_changes":[5.881868E5,7.575431E4,6.838069E4,3.8105484E4,1.0206703E4,1.1549281E4,3.1340734E4,1.4383172E4,3.1361021E4,2.9065903E3,7.564453E1,3.60875E2,5.261422E3,1.7947545E4,4.5747344E3,6.188828E3,1.5450086E4,1.8225342E4,6.5798477E3,9.373867E2,1.9101478E3,0E0,0E0,5.553125E1,0E0,4.6210547E3,0E0,8.37144E3,6.6914355E3,8.7846484E2,0E0,0E0,0E0,0E0,0E0,0E0,0E0,0E0,0E0,0E0,0E0,0E0,0E0,0E0,0E0,0E0,0E0,0E0,0E0,0E0,0E0,0E0,0E0],"parents":[2147483647,0,0,1,1,2,2,3,3,4,4,5,5,6,6,7,7,8,8,9,9,10,10,11,11,12,12,13,13,14,14,15,15,16,16,17,17,18,18,19,19,20,20,23,23,25,25,27,27,28,28,29,29],"right_children":[2,4,6,8,10,12,14,16,18,20,22,24,26,28,30,32,34,36,38,40,42,-1,-1,44,-1,46,-1,48,50,52,-1,-1,-1,-1,-1,-1,-1,-1,-1,-1,-1,-1,-1,-1,-1,-1,-1,-1,-1,-1,-1,-1,-1],"split_conditions":[4.7632E1,9.0804E3,5.2077E2,8.5021E1,9.09865E3,5.5211E2,8.15182E3,9.0016663E-1,5.2172E2,5.21602E2,2.2329733E0,4.8046E1,8.16995E3,1.0893413E0,8.1886E3,1.59256E3,5.22196E2,9.06208E3,8.14084E3,4.63796E2,8.16732E3,-2.772272E-1,-1.1341373E0,1.1300442E-1,-1.3694009E0,1.2566588E0,-1.1636614E0,1.591806E3,3.43806E1,5.538424E2,-1.3216951E0,6.1462563E-1,3.0814225E-3,2.6577857E-1,6.8927985E-1,1.764451E-1,-3.4340277E-1,6.571784E-1,2.8093895E-1,-7.1750814E-1,-2.785591E-1,4.6609446E-2,-4.5799968E-1,-3.246143E-1,-1.1231815E0,-5.7486E-1,-9.5516586E-1,3.874773E-1,-1.5284139E-1,2.5631362E-1,-5.969078E-1,-8.140746E-1,-4.5904344E-1],"split_indices":[36,11,39,43,11,33,16,44,39,39,28,36,16,44,16,27,39,11,16,43,16,0,0,34,0,44,0,27,43,43,0,0,0,0,0,0,0,0,0,0,0,0,0,0,0,0,0,0,0,0,0,0,0],"split_type":[0,0,0,0,0,0,0,0,0,0,0,0,0,0,0,0,0,0,0,0,0,0,0,0,0,0,0,0,0,0,0,0,0,0,0,0,0,0,0,0,0,0,0,0,0,0,0,0,0,0,0,0,0],"sum_hessian":[1.2669E4,8.856E3,3.813E3,8.393E3,4.63E2,2.149E3,1.664E3,5.837E3,2.556E3,3.26E2,1.37E2,1.026E3,1.123E3,1.162E3,5.02E2,3.049E3,2.788E3,1.465E3,1.091E3,1.54E2,1.72E2,8E0,1.29E2,5.83E2,4.43E2,8.42E2,2.81E2,6.33E2,5.29E2,3.85E2,1.17E2,2.955E3,9.4E1,2.182E3,6.06E2,7.32E2,7.33E2,4.46E2,6.45E2,9.2E1,6.2E1,1.2E2,5.2E1,1E1,5.73E2,4.62E2,3.8E2,2.58E2,3.75E2,5.1E1,4.78E2,2.87E2,9.8E1],"tree_param":{"num_deleted":"0","num_feature":"45","num_nodes":"53","size_leaf_vector":"1"}},{"base_weights":[-8.051828E-2,3.5953753E0,-1.0497572E1,5.5333524E0,-1.1317135E0,-7.1519456E0,-1.4319706E1,5.8495765E0,-3.4786696E0,5.744547E0,-2.9531739E0,-5.0122476E-1,-8.756967E0,-1.3094534E1,-1.2788649E0,6.6244884E0,3.5149517E0,1.6363016E0,-6.1965218E0,1.4301201E0,8.550336E0,-7.1069055E0,-5.645459E-1,2.4535668E0,-8.4406595E0,-4.5478516E0,-1.0364847E1,-8.927535E0,-1.37562275E1,3.509585E-1,5.344079E-1,4.7941786E-1,7.620129E-2,4.059476E-1,-2.4030145E-1,5.4499585E-2,-5.0713307E-1,-1.2558664E-1,3.923084E-1,6.656541E-1,-2.6468703E-1,-6.783675E-1,-7.261561E-2,2.181293E-1,-3.5121018E-1,5.4873073E-1,-2.168924E-1,-1.3130014E0,-2.4951689E-1,-1.6510464E-1,-8.481704E-1,-7.1594596E-1,-1.1990652E0,-7.1106076E-1,-1.4209066E-1,-9.5279694E-1,-1.243095E0],"categories":[],"categories_nodes":[],"categories_segments":[],"categories_sizes":[],"default_left":[0,0,0,0,0,0,0,0,0,0,0,0,0,0,0,0,0,0,0,0,0,0,0,0,0,0,0,0,0,0,0,0,0,0,0,0,0,0,0,0,0,0,0,0,0,0,0,0,0,0,0,0,0,0,0,0,0],"id":22,"left_children":[1,3,5,7,9,11,13,15,17,19,21,23,25,27,-1,29,31,33,35,37,39,41,43,45,47,49,51,53,55,-1,-1,-1,-1,-1,-1,-1,-1,-1,-1,-1,-1,-1,-1,-1,-1,-1,-1,-1,-1,-1,-1,-1,-1,-1,-1,-1,-1],"loss_changes":[4.838253E5,8.562121E4,4.1153156E4,1.9078281E4,3.4276363E4,1.8921492E4,3.3011875E3,1.1361234E4,3.3045408E3,6.8251406E3,2.1387812E4,8.54339E3,9.226156E3,1.8952656E3,0E0,4.9554688E3,1.1798941E4,1.8117965E3,7.290088E2,2.9525303E3,2.0964238E3,9.765273E3,2.0344074E4,7.303129E3,4.0626123E3,6.3529873E3,2.7262812E3,6.59667E2,5.0275E2,0E0,0E0,0E0,0E0,0E0,0E0,0E0,0E0,0E0,0E0,0E0,0E0,0E0,0E0,0E0,0E0,0E0,0E0,0E0,0E0,0E0,0E0,0E0,0E0,0E0,0E0,0E0,0E0],"parents":[2147483647,0,0,1,1,2,2,3,3,4,4,5,5,6,6,7,7,8,8,9,9,10,10,11,11,12,12,13,13,15,15,16,16,17,17,18,18,19,19,20,20,21,21,22,22,23,23,24,24,25,25,26,26,27,27,28,28],"right_children":[2,4,6,8,10,12,14,16,18,20,22,24,26,28,-1,30,32,34,36,38,40,42,44,46,48,50,52,54,56,-1,-1,-1,-1,-1,-1,-1,-1,-1,-1,-1,-1,-1,-1,-1,-1,-1,-1,-1,-1,-1,-1,-1,-1,-1,-1,-1,-1],"split_conditions":[6.42898E2,3.9638E0,6.43192E2,8.15554E3,6.4237E2,3.3958E0,4.8056E1,6.2069E1,1.4024525E3,5.54102E2,4.9E-1,9.06373E3,1.0124984E0,1.0204437E0,-1.2788649E0,-2.55756E1,9.05923E3,1.58666E3,1.58226E3,1.40722E3,8.15911E3,2.33263E1,8.14302E3,8.4513E0,5.252E1,9.08512E3,8.1886E3,3.873E1,9.126E3,3.509585E-1,5.344079E-1,4.7941786E-1,7.620129E-2,4.059476E-1,-2.4030145E-1,5.4499585E-2,-5.0713307E-1,-1.2558664E-1,3.923084E-1,6.656541E-1,-2.6468703E-1,-6.783675E-1,-7.261561E-2,2.181293E-1,-3.5121018E-1,5.4873073E-1,-2.168924E-1,-1.3130014E0,-2.4951689E-1,-1.6510464E-1,-8.481704E-1,-7.1594596E-1,-1.1990652E0,-7.1106076E-1,-1.4209066E-1,-9.5279694E-1,-1.243095E0],"split_indices":[24,42,24,16,24,42,36,43,30,33,32,11,44,44,0,43,11,5,5,6,16,23,16,17,43,11,16,22,11,0,0,0,0,0,0,0,0,0,0,0,0,0,0,0,0,0,0,0,0,0,0,0,0,0,0,0,0],"split_type":[0,0,0,0,0,0,0,0,0,0,0,0,0,0,0,0,0,0,0,0,0,0,0,0,0,0,0,0,0,0,0,0,0,0,0,0,0,0,0,0,0,0,0,0,0,0,0,0,0,0,0,0,0,0,0,0,0],"sum_hessian":[1.2616E4,9.33E3,3.286E3,6.616E3,2.714E3,1.767E3,1.519E3,6.395E3,2.21E2,5.64E2,2.15E3,3.46E2,1.421E3,1.108E3,4.11E2,4.788E3,1.607E3,7.8E1,1.43E2,2.28E2,3.36E2,7.78E2,1.372E3,2.57E2,8.9E1,4.03E2,1.018E3,1.71E2,9.37E2,1.148E3,3.64E3,7.28E2,8.79E2,4.3E1,3.5E1,1.2E1,1.31E2,1.29E2,9.9E1,3.27E2,9E0,5.8E2,1.98E2,7.47E2,6.25E2,1.32E2,1.25E2,2.3E1,6.6E1,3.11E2,9.2E1,9.3E2,8.8E1,1.53E2,1.8E1,7.59E2,1.78E2],"tree_param":{"num_deleted":"0","num_feature":"45","num_nodes":"57","size_leaf_vector":"1"}},{"base_weights":[4.3834257E-4,3.533083E0,-9.207842E0,4.9260674E0,-1.8479868E0,-7.882591E-1,-1.0795365E1,5.3061295E0,-6.006317E0,1.2260983E0,-5.6616354E0,8.750857E0,-1.983454E0,-8.2166195E0,-1.3566559E1,7.8860097E0,4.425508E0,-1.4714377E0,-7.9310193E0,2.4474576E0,-8.929462E0,-1.5530278E1,-3.8590107E0,1.0865568E1,-6.1298802E-2,-4.027448E0,3.4942381E0,-6.8349247E0,-1.3566775E1,-1.214376E1,-1.143973E0,5.9028316E-1,-3.6596306E-2,4.6258932E-1,1.6645859E-1,1.5929036E-1,-3.4501886E-1,-6.494391E-1,5.030485E-3,-4.2997265E-1,2.629917E-1,-1.1555084E0,-2.9452997E-1,-1.3284748E0,1.6043264E-1,-6.196773E-1,-6.466998E-2,9.1276526E-1,1.3218045E-1,-4.2824534E-1,4.5713368E-1,5.4939824E-1,-1.5567021E-1,-6.190157E-1,-1.9519831E-1,-7.5499713E-1,-1.1600763E0,-9.67365E-1,-7.180099E-1],"categories":[],"categories_nodes":[],"categories_segments":[],"categories_sizes":[],"default_left":[0,0,0,0,0,0,0,0,0,0,0,0,0,0,0,0,0,0,0,0,0,0,0,0,0,0,0,0,0,0,0,0,0,0,0,0,0,0,0,0,0,0,0,0,0,0,0,0,0,0,0,0,0,0,0,0,0,0,0],"id":23,"left_children":[1,3,5,7,9,11,13,15,17,19,21,23,25,27,29,31,33,35,37,39,41,43,45,47,-1,49,51,53,55,57,-1,-1,-1,-1,-1,-1,-1,-1,-1,-1,-1,-1,-1,-1,-1,-1,-1,-1,-1,-1,-1,-1,-1,-1,-1,-1,-1,-1,-1],"loss_changes":[4.0988122E5,6.8349164E4,4.6613656E4,3.0375266E4,2.210333E4,6.604082E3,1.9923188E4,1.5562422E4,2.0479326E3,1.3216847E4,1.4374646E4,1.3968965E3,5.8418345E3,1.0537039E4,1.9020156E3,1.1421016E3,2.057811E4,1.0828147E3,1.1423867E3,8.751193E3,3.182537E3,5.720285E3,9.650503E3,4.903672E2,0E0,7.0348296E3,3.295963E3,7.7263945E3,6.253828E2,6.4339844E2,0E0,0E0,0E0,0E0,0E0,0E0,0E0,0E0,0E0,0E0,0E0,0E0,0E0,0E0,0E0,0E0,0E0,0E0,0E0,0E0,0E0,0E0,0E0,0E0,0E0,0E0,0E0,0E0,0E0],"parents":[2147483647,0,0,1,1,2,2,3,3,4,4,5,5,6,6,7,7,8,8,9,9,10,10,11,11,12,12,13,13,14,14,15,15,16,16,17,17,18,18,19,19,20,20,21,21,22,22,23,23,25,25,26,26,27,27,28,28,29,29],"right_children":[2,4,6,8,10,12,14,16,18,20,22,24,26,28,30,32,34,36,38,40,42,44,46,48,-1,50,52,54,56,58,-1,-1,-1,-1,-1,-1,-1,-1,-1,-1,-1,-1,-1,-1,-1,-1,-1,-1,-1,-1,-1,-1,-1,-1,-1,-1,-1,-1,-1],"split_conditions":[6.5874E0,6.42756E2,1.590866E3,9.0804E3,3.5238E0,3.92E2,1.19618E1,4.72675E1,1.588036E3,8.14749E3,1.40966E3,1.6E-3,7.8E0,9.09683E3,1.5447654E0,1.589122E3,9.05956E3,1.0028142E0,2.2E-1,5.209E2,1.267308E2,1.5973E3,5.20912E2,4E-4,-6.1298802E-2,6.41716E2,8.47E0,4.54E0,8.18289E3,8.9884E2,-1.143973E0,5.9028316E-1,-3.6596306E-2,4.6258932E-1,1.6645859E-1,1.5929036E-1,-3.4501886E-1,-6.494391E-1,5.030485E-3,-4.2997265E-1,2.629917E-1,-1.1555084E0,-2.9452997E-1,-1.3284748E0,1.6043264E-1,-6.196773E-1,-6.466998E-2,9.1276526E-1,1.3218045E-1,-4.2824534E-1,4.5713368E-1,5.4939824E-1,-1.5567021E-1,-6.190157E-1,-1.9519831E-1,-7.5499713E-1,-1.1600763E0,-9.67365E-1,-7.180099E-1],"split_indices":[42,24,27,11,42,19,42,36,27,16,6,0,32,11,44,27,11,44,38,39,43,5,39,1,0,43,42,32,16,43,0,0,0,0,0,0,0,0,0,0,0,0,0,0,0,0,0,0,0,0,0,0,0,0,0,0,0,0,0],"split_type":[0,0,0,0,0,0,0,0,0,0,0,0,0,0,0,0,0,0,0,0,0,0,0,0,0,0,0,0,0,0,0,0,0,0,0,0,0,0,0,0,0,0,0,0,0,0,0,0,0,0,0,0,0,0,0,0,0,0,0],"sum_hessian":[1.2581E4,9.097E3,3.484E3,7.227E3,1.87E3,5.55E2,2.929E3,6.989E3,2.38E2,1.039E3,8.31E2,5.5E1,5E2,1.537E3,1.392E3,1.759E3,5.23E3,7.6E1,1.62E2,9.34E2,1.05E2,1.17E2,7.14E2,4.4E1,1.1E1,3.66E2,1.34E2,1.239E3,2.98E2,8.3E2,5.62E2,1.744E3,1.5E1,2.846E3,2.384E3,3.7E1,3.9E1,1.46E2,1.6E1,1.05E2,8.29E2,3.6E1,6.9E1,1.03E2,1.4E1,2.78E2,4.36E2,3.5E1,9E0,3.16E2,5E1,7.7E1,5.7E1,9.04E2,3.35E2,1.35E2,1.63E2,5.77E2,2.53E2],"tree_param":{"num_deleted":"0","num_feature":"45","num_nodes":"59","size_leaf_vector":"1"}},{"base_weights":[-2.29537E-1,3.5426393E0,-8.132905E0,4.9970746E0,-3.7219298E-1,-9.751045E-1,-9.988767E0,5.460124E0,2.0535423E-1,3.1442888E0,-3.466039E0,2.879223E0,-4.4333663E0,-8.02496E0,-1.33668E1,-1.2518848E0,5.632044E0,-7.099238E0,5.299712E0,5.787008E0,6.515038E-1,2.825123E0,-4.8502536E0,5.7728523E-1,9.323416E0,-6.4142823E0,3.9093792E0,-1.0911656E1,-6.0503683E0,-1.1827381E1,-1.0956352E0,3.981341E-1,-4.0188697E-1,2.6854825E-1,4.5522326E-1,1.95761E-1,-6.462551E-1,-3.1927668E-2,4.9269438E-1,4.8492667E-1,-7.081445E-1,-1.6214626E-1,3.8868913E-1,4.3755317E-1,-3.2052088E-1,-4.4043034E-1,3.0843645E-1,4.199041E-1,-2.902526E-1,-2.2031361E-1,1.059333E0,-8.8876337E-1,-1.9426809E-1,-1.739043E-1,1.1150824E0,-1.1704664E0,-7.152959E-1,-1.0327423E-1,-5.703385E-1,-8.85151E-1,-2.3124953E-1],"categories":[],"categories_nodes":[],"categories_segments":[],"categories_sizes":[],"default_left":[0,0,0,0,0,0,0,0,0,0,0,0,0,0,0,0,0,0,0,0,0,0,0,0,0,0,0,0,0,0,0,0,0,0,0,0,0,0,0,0,0,0,0,0,0,0,0,0,0,0,0,0,0,0,0,0,0,0,0,0,0],"id":24,"left_children":[1,3,5,7,9,11,13,15,17,19,21,23,25,27,29,31,33,35,37,39,41,43,45,47,49,51,53,55,57,59,-1,-1,-1,-1,-1,-1,-1,-1,-1,-1,-1,-1,-1,-1,-1,-1,-1,-1,-1,-1,-1,-1,-1,-1,-1,-1,-1,-1,-1,-1,-1],"loss_changes":[3.7599944E5,4.8630656E4,5.403197E4,1.3802031E4,2.5363264E4,1.1448302E4,2.0421562E4,6.6189062E3,2.1150707E4,7.15437E3,1.0927491E4,5.994E3,7.7059287E3,1.1158766E4,8.598281E2,4.409963E3,5.428297E3,3.899755E3,2.6068066E3,6.703832E3,7.5712334E3,5.294344E3,1.0245625E4,7.309448E3,6.916783E3,7.4888496E3,6.789498E3,3.6386406E3,9.455297E3,2.2147656E2,0E0,0E0,0E0,0E0,0E0,0E0,0E0,0E0,0E0,0E0,0E0,0E0,0E0,0E0,0E0,0E0,0E0,0E0,0E0,0E0,0E0,0E0,0E0,0E0,0E0,0E0,0E0,0E0,0E0,0E0,0E0],"parents":[2147483647,0,0,1,1,2,2,3,3,4,4,5,5,6,6,7,7,8,8,9,9,10,10,11,11,12,12,13,13,14,14,15,15,16,16,17,17,18,18,19,19,20,20,21,21,22,22,23,23,24,24,25,25,26,26,27,27,28,28,29,29],"right_children":[2,4,6,8,10,12,14,16,18,20,22,24,26,28,30,32,34,36,38,40,42,44,46,48,50,52,54,56,58,60,-1,-1,-1,-1,-1,-1,-1,-1,-1,-1,-1,-1,-1,-1,-1,-1,-1,-1,-1,-1,-1,-1,-1,-1,-1,-1,-1,-1,-1,-1,-1],"split_conditions":[5.856E0,1.038594E2,6.42706E2,9.06988E3,8.4358E0,1.589418E3,1.30998E1,5.52924E2,5.21984E2,3.93E2,1.6168E0,1.41145E3,5.440886E2,-1.16E0,1.5447654E0,4.762E1,-2.43054E1,8.14491E3,3.889E1,1.591434E3,1.40659E3,8.1437E3,3.892E1,4.7354E1,-1.84E0,1.4104E3,1.0990905E-1,1.4134E3,1.01E0,5.21286E2,-1.0956352E0,3.981341E-1,-4.0188697E-1,2.6854825E-1,4.5522326E-1,1.95761E-1,-6.462551E-1,-3.1927668E-2,4.9269438E-1,4.8492667E-1,-7.081445E-1,-1.6214626E-1,3.8868913E-1,4.3755317E-1,-3.2052088E-1,-4.4043034E-1,3.0843645E-1,4.199041E-1,-2.902526E-1,-2.2031361E-1,1.059333E0,-8.8876337E-1,-1.9426809E-1,-1.739043E-1,1.1150824E0,-1.1704664E0,-7.152959E-1,-1.0327423E-1,-5.703385E-1,-8.85151E-1,-2.3124953E-1],"split_indices":[42,43,24,11,17,27,42,33,39,19,42,6,43,29,44,36,43,16,22,27,6,16,22,36,29,6,37,6,44,39,0,0,0,0,0,0,0,0,0,0,0,0,0,0,0,0,0,0,0,0,0,0,0,0,0,0,0,0,0,0,0],"split_type":[0,0,0,0,0,0,0,0,0,0,0,0,0,0,0,0,0,0,0,0,0,0,0,0,0,0,0,0,0,0,0,0,0,0,0,0,0,0,0,0,0,0,0,0,0,0,0,0,0,0,0,0,0,0,0,0,0,0,0,0,0],"sum_hessian":[1.2593E4,8.528E3,4.065E3,6.216E3,2.312E3,8.4E2,3.225E3,5.667E3,5.49E2,1.082E3,1.23E3,3.98E2,4.42E2,2.06E3,1.165E3,1.4E2,5.527E3,2.24E2,3.25E2,5.19E2,5.63E2,2.2E2,1.01E3,3.01E2,9.7E1,3.59E2,8.3E1,8.19E2,1.241E3,6E2,5.65E2,5.3E1,8.7E1,1.129E3,4.398E3,3.1E1,1.93E2,6.3E1,2.62E2,5E2,1.9E1,3.51E2,2.12E2,1.55E2,6.5E1,9.04E2,1.06E2,1.4E2,1.61E2,2.9E1,6.8E1,1.37E2,2.22E2,5.8E1,2.5E1,1.46E2,6.73E2,3.28E2,9.13E2,5.89E2,1.1E1],"tree_param":{"num_deleted":"0","num_feature":"45","num_nodes":"61","size_leaf_vector":"1"}},{"base_weights":[-1.4986762E-1,2.8390305E0,-8.806342E0,4.112653E0,-2.4846017E0,-1.0872795E1,-5.250959E0,4.713777E0,-2.4713449E-1,-5.086451E0,2.8955147E0,-9.26574E0,-1.3021534E1,-3.6247985E0,-1.1541251E1,5.774672E0,3.111058E0,-3.3712175E0,5.805798E0,-7.558927E0,-2.6211116E-1,4.081459E0,-9.863429E0,-1.2386091E1,-8.142998E0,-9.773032E-1,-4.92205E0,5.917964E-1,-4.3231487E0,-8.963296E0,-1.1177031E0,4.966656E-1,3.154825E-1,5.926273E-1,1.6054422E-1,-7.191522E-2,-6.2958115E-1,4.899337E-1,-3.0795038E-1,-6.811472E-1,-8.352394E-2,-7.807811E-1,1.5418757E-1,6.904332E-1,1.4607607E-1,-1.3653287E-1,-8.0664384E-1,-9.317033E-1,-2.3710974E-1,-5.1723814E-1,-9.211077E-1,-2.7406966E-2,-4.676937E-1,-5.75293E-1,-2.087073E-1,-8.150077E-1,-4.385018E-1],"categories":[],"categories_nodes":[],"categories_segments":[],"categories_sizes":[],"default_left":[0,0,0,0,0,0,0,0,0,0,0,0,0,0,0,0,0,0,0,0,0,0,0,0,0,0,0,0,0,0,0,0,0,0,0,0,0,0,0,0,0,0,0,0,0,0,0,0,0,0,0,0,0,0,0,0,0],"id":25,"left_children":[1,3,5,7,9,11,13,15,17,19,21,23,25,27,29,31,33,35,37,39,41,43,45,47,49,-1,51,-1,53,55,-1,-1,-1,-1,-1,-1,-1,-1,-1,-1,-1,-1,-1,-1,-1,-1,-1,-1,-1,-1,-1,-1,-1,-1,-1,-1,-1],"loss_changes":[3.2608097E5,6.362083E4,2.321286E4,1.9834305E4,2.5544004E4,5.86725E3,1.194802E4,1.11289375E4,1.7692129E4,1.4611473E4,9.430555E3,3.224711E3,4.58875E2,8.22337E3,9.1331055E2,5.3221406E3,1.215416E4,7.5000312E3,2.8077285E3,8.382602E3,1.044465E4,5.9354004E3,2.4219775E2,1.01328125E2,3.7072266E3,0E0,1.7630731E2,0E0,4.5799297E3,3.8972754E2,0E0,0E0,0E0,0E0,0E0,0E0,0E0,0E0,0E0,0E0,0E0,0E0,0E0,0E0,0E0,0E0,0E0,0E0,0E0,0E0,0E0,0E0,0E0,0E0,0E0,0E0,0E0],"parents":[2147483647,0,0,1,1,2,2,3,3,4,4,5,5,6,6,7,7,8,8,9,9,10,10,11,11,12,12,13,13,14,14,15,15,16,16,17,17,18,18,19,19,20,20,21,21,22,22,23,23,24,24,26,26,28,28,29,29],"right_children":[2,4,6,8,10,12,14,16,18,20,22,24,26,28,30,32,34,36,38,40,42,44,46,48,50,-1,52,-1,54,56,-1,-1,-1,-1,-1,-1,-1,-1,-1,-1,-1,-1,-1,-1,-1,-1,-1,-1,-1,-1,-1,-1,-1,-1,-1,-1,-1],"split_conditions":[6.42904E2,5.212E0,5.20788E2,9.06988E3,5.53658E2,1.4110382E0,9.09513E3,9.7760814E-1,5.22104E2,4.61E0,8.16399E3,5.20192E2,2.32611E1,6.6460514E-1,8.19746E3,8.14075E3,4.7254E1,1.59053E3,8.15992E3,5.440886E2,1.58836E3,9.05793E3,1.9005841E0,5.5254E2,8.17882E3,-9.773032E-1,9.05539E3,5.917964E-1,1.59099E3,1.00808E1,-1.1177031E0,4.966656E-1,3.154825E-1,5.926273E-1,1.6054422E-1,-7.191522E-2,-6.2958115E-1,4.899337E-1,-3.0795038E-1,-6.811472E-1,-8.352394E-2,-7.807811E-1,1.5418757E-1,6.904332E-1,1.4607607E-1,-1.3653287E-1,-8.0664384E-1,-9.317033E-1,-2.3710974E-1,-5.1723814E-1,-9.211077E-1,-2.7406966E-2,-4.676937E-1,-5.75293E-1,-2.087073E-1,-8.150077E-1,-4.385018E-1],"split_indices":[24,42,39,11,33,44,11,44,39,32,16,39,23,44,16,16,36,27,16,43,5,11,28,9,16,0,11,0,5,42,0,0,0,0,0,0,0,0,0,0,0,0,0,0,0,0,0,0,0,0,0,0,0,0,0,0,0],"split_type":[0,0,0,0,0,0,0,0,0,0,0,0,0,0,0,0,0,0,0,0,0,0,0,0,0,0,0,0,0,0,0,0,0,0,0,0,0,0,0,0,0,0,0,0,0,0,0,0,0,0,0,0,0,0,0,0,0],"sum_hessian":[1.2584E4,9.359E3,3.225E3,7.554E3,1.805E3,2.027E3,1.198E3,6.638E3,9.16E2,1.217E3,5.88E2,1.189E3,8.38E2,9.64E2,2.34E2,3.979E3,2.659E3,6.07E2,3.09E2,8.01E2,4.16E2,5.44E2,4.4E1,2.89E2,9E2,8.16E2,2.2E1,4.9E1,9.15E2,1.55E2,7.9E1,2.455E3,1.524E3,4.2E2,2.239E3,4.21E2,1.86E2,2.89E2,2E1,6.36E2,1.65E2,7.1E1,3.45E2,1.47E2,3.97E2,8E0,3.6E1,2.8E2,9E0,7.27E2,1.73E2,8E0,1.4E1,2.67E2,6.48E2,7.8E1,7.7E1],"tree_param":{"num_deleted":"0","num_feature":"45","num_nodes":"57","size_leaf_vector":"1"}},{"base_weights":[-1.9625126E-1,3.28176E0,-6.552503E0,3.6899712E0,-7.0739923E0,-9.812708E0,-3.062541E0,4.789715E0,1.355754E0,-4.313374E0,-9.170789E-1,-8.474552E0,-9.0672654E-1,-9.88347E-1,-7.6428685E0,5.4664807E0,3.3971603E0,-3.4696107E0,2.8641615E0,-1.484188E0,-5.5677752E0,-7.1405106E0,-1.0470722E1,6.3626873E-1,-7.0535197E0,-6.39465E0,-1.0836319E0,4.6618295E-1,2.9569745E-1,3.534695E-1,-4.383386E-1,-8.2599187E-1,-2.570585E-2,1.1867349E-1,4.9883318E-1,-3.4436533E-1,1.12176314E-1,2.7343221E-2,-4.465732E-1,-4.7571546E-1,-8.6056554E-1,-7.853753E-1,-1.6504014E-1,-3.5406187E-2,5.644679E-1,1.6947447E-1,-7.0424277E-1,-7.2530514E-1,-3.4611267E-1],"categories":[],"categories_nodes":[],"categories_segments":[],"categories_sizes":[],"default_left":[0,0,0,0,0,0,0,0,0,0,0,0,0,0,0,0,0,0,0,0,0,0,0,0,0,0,0,0,0,0,0,0,0,0,0,0,0,0,0,0,0,0,0,0,0,0,0,0,0],"id":26,"left_children":[1,3,5,7,9,11,13,15,17,19,-1,21,-1,23,25,27,29,31,33,35,37,39,41,43,45,47,-1,-1,-1,-1,-1,-1,-1,-1,-1,-1,-1,-1,-1,-1,-1,-1,-1,-1,-1,-1,-1,-1,-1],"loss_changes":[2.7808612E5,3.4622195E4,5.032542E4,2.0033156E4,4.0380723E3,6.4182656E3,2.0472361E4,4.8315234E3,1.84425E4,6.990449E2,0E0,3.2947969E3,0E0,1.4820789E4,4.949543E3,4.0791953E3,2.2769984E4,1.444364E4,9.296061E3,8.317352E2,4.232085E2,2.3061523E3,3.5225E2,9.294376E3,7.4593896E3,2.9953496E3,0E0,0E0,0E0,0E0,0E0,0E0,0E0,0E0,0E0,0E0,0E0,0E0,0E0,0E0,0E0,0E0,0E0,0E0,0E0,0E0,0E0,0E0,0E0],"parents":[2147483647,0,0,1,1,2,2,3,3,4,4,5,5,6,6,7,7,8,8,9,9,11,11,13,13,14,14,15,15,16,16,17,17,18,18,19,19,20,20,21,21,22,22,23,23,24,24,25,25],"right_children":[2,4,6,8,10,12,14,16,18,20,-1,22,-1,24,26,28,30,32,34,36,38,40,42,44,46,48,-1,-1,-1,-1,-1,-1,-1,-1,-1,-1,-1,-1,-1,-1,-1,-1,-1,-1,-1,-1,-1,-1,-1],"split_conditions":[4.7596E1,8.16144E3,5.2083E2,3.1384E0,9.104E3,6.43406E2,8.14817E3,9.06266E3,5.533E2,9.08709E3,-9.170789E-1,1.3328886E0,-9.0672654E-1,1.2278554E0,8.19464E3,9.7257835E-1,1.407472E3,1.4085E3,5.54206E2,5.5364E2,2.31815E1,8.17882E3,5.52972E2,5.234372E0,2.3534E0,1.412732E3,-1.0836319E0,4.6618295E-1,2.9569745E-1,3.534695E-1,-4.383386E-1,-8.2599187E-1,-2.570585E-2,1.1867349E-1,4.9883318E-1,-3.4436533E-1,1.12176314E-1,2.7343221E-2,-4.465732E-1,-4.7571546E-1,-8.6056554E-1,-7.853753E-1,-1.6504014E-1,-3.5406187E-2,5.644679E-1,1.6947447E-1,-7.0424277E-1,-7.2530514E-1,-3.4611267E-1],"split_indices":[36,16,39,42,11,24,16,11,9,11,0,44,0,44,16,44,30,6,33,9,23,16,33,31,42,30,0,0,0,0,0,0,0,0,0,0,0,0,0,0,0,0,0,0,0,0,0,0,0],"split_type":[0,0,0,0,0,0,0,0,0,0,0,0,0,0,0,0,0,0,0,0,0,0,0,0,0,0,0,0,0,0,0,0,0,0,0,0,0,0,0,0,0,0,0,0,0,0,0,0,0],"sum_hessian":[1.256E4,8.121E3,4.439E3,7.819E3,3.02E2,2.286E3,2.153E3,5.308E3,2.511E3,2.1E2,9.2E1,1.499E3,7.87E2,1.49E3,6.63E2,3.553E3,1.755E3,5.95E2,1.916E3,7.1E1,1.39E2,9.25E2,5.74E2,1.182E3,3.08E2,5.78E2,8.5E1,2.265E3,1.288E3,1.534E3,2.21E2,1.65E2,4.3E2,1.454E3,4.62E2,3.2E1,3.9E1,1E1,1.29E2,8.16E2,1.09E2,5.63E2,1.1E1,1.027E3,1.55E2,6.4E1,2.44E2,1.8E2,3.98E2],"tree_param":{"num_deleted":"0","num_feature":"45","num_nodes":"49","size_leaf_vector":"1"}},{"base_weights":[-1.3882537E-1,3.07026E0,-6.1517415E0,3.4014783E0,-8.171766E0,-1.5335557E0,-8.163774E0,4.511344E0,1.1726974E0,-4.6048174E0,-1.069469E1,4.2941422E0,-3.148422E0,-6.53444E0,-1.0824259E1,5.66574E0,3.5240555E0,-6.986635E-1,4.421599E0,-5.6550865E0,7.4532443E-1,-1.151456E1,-4.539917E0,7.3716464E0,-1.0747297E1,-6.3398547E0,-9.4597155E-1,-7.5036335E0,-1.7412817E0,-1.0058094E1,-9.9229467E-1,2.966281E-1,4.4668093E-1,7.014874E-2,3.22811E-1,-2.8404465E-1,2.821028E-1,5.5923796E-1,1.9525877E-1,-1.5150006E-1,-5.374937E-1,-5.015238E-2,1.4290348E-1,-1.9632524E-1,-8.9296055E-1,-3.816066E-1,-9.195075E-2,3.4342453E-2,6.4668024E-1,1.025346E-1,-1.0464929E0,-5.1681435E-1,4.3185678E-1,2.0691752E-1,-4.643594E-1,-7.3640746E-1,-4.596691E-1,-4.1853514E-1,5.463393E-2,-8.130328E-1,-5.693958E-1],"categories":[],"categories_nodes":[],"categories_segments":[],"categories_sizes":[],"default_left":[0,0,0,0,0,0,0,0,0,0,0,0,0,0,0,0,0,0,0,0,0,0,0,0,0,0,0,0,0,0,0,0,0,0,0,0,0,0,0,0,0,0,0,0,0,0,0,0,0,0,0,0,0,0,0,0,0,0,0,0,0],"id":27,"left_children":[1,3,5,7,9,11,13,15,17,19,21,23,25,27,29,31,33,35,37,39,41,43,45,47,49,51,53,55,57,59,-1,-1,-1,-1,-1,-1,-1,-1,-1,-1,-1,-1,-1,-1,-1,-1,-1,-1,-1,-1,-1,-1,-1,-1,-1,-1,-1,-1,-1,-1,-1],"loss_changes":[2.4590953E5,3.1208898E4,4.108464E4,1.9932078E4,1.6891201E3,1.2906885E4,1.2696281E4,5.9491953E3,1.6437564E4,6.9658496E2,1.686582E2,1.4587406E4,7.4528174E3,8.878977E3,9.6840625E2,1.2390078E3,6.2254844E3,2.4406998E4,5.3185215E3,4.239353E2,5.9144108E1,2.1345117E2,1.0834961E0,2.3245215E3,2.4201538E3,3.7211895E3,1.2954086E4,4.502258E3,3.3159326E3,1.1910469E3,0E0,0E0,0E0,0E0,0E0,0E0,0E0,0E0,0E0,0E0,0E0,0E0,0E0,0E0,0E0,0E0,0E0,0E0,0E0,0E0,0E0,0E0,0E0,0E0,0E0,0E0,0E0,0E0,0E0,0E0,0E0],"parents":[2147483647,0,0,1,1,2,2,3,3,4,4,5,5,6,6,7,7,8,8,9,9,10,10,11,11,12,12,13,13,14,14,15,15,16,16,17,17,18,18,19,19,20,20,21,21,22,22,23,23,24,24,25,25,26,26,27,27,28,28,29,29],"right_children":[2,4,6,8,10,12,14,16,18,20,22,24,26,28,30,32,34,36,38,40,42,44,46,48,50,52,54,56,58,60,-1,-1,-1,-1,-1,-1,-1,-1,-1,-1,-1,-1,-1,-1,-1,-1,-1,-1,-1,-1,-1,-1,-1,-1,-1,-1,-1,-1,-1,-1,-1],"split_conditions":[4.7598E1,8.16496E3,5.7084E0,3.0926E0,8.17436E3,2.3789E1,1.32902E1,6.32E-2,5.2187E2,1.2357184E-1,4.9177046E0,9.06255E3,8.13309E3,5.64E0,1.427184E3,-7.63E0,-3.28E0,1.41084E3,8.14026E3,5.5351E2,-1.2E-1,2.187071E0,1.592186E3,-5.5E-1,1.589854E3,5.53392E2,8.14458E3,-2.64E0,5.2074E2,9.572116E2,-9.9229467E-1,2.966281E-1,4.4668093E-1,7.014874E-2,3.22811E-1,-2.8404465E-1,2.821028E-1,5.5923796E-1,1.9525877E-1,-1.5150006E-1,-5.374937E-1,-5.015238E-2,1.4290348E-1,-1.9632524E-1,-8.9296055E-1,-3.816066E-1,-9.195075E-2,3.4342453E-2,6.4668024E-1,1.025346E-1,-1.0464929E0,-5.1681435E-1,4.3185678E-1,2.0691752E-1,-4.643594E-1,-7.3640746E-1,-4.596691E-1,-4.1853514E-1,5.463393E-2,-8.130328E-1,-5.693958E-1],"split_indices":[36,16,42,42,16,43,42,42,14,37,28,11,16,32,30,32,32,6,16,9,35,28,27,35,27,33,16,32,39,43,0,0,0,0,0,0,0,0,0,0,0,0,0,0,0,0,0,0,0,0,0,0,0,0,0,0,0,0,0,0,0],"split_type":[0,0,0,0,0,0,0,0,0,0,0,0,0,0,0,0,0,0,0,0,0,0,0,0,0,0,0,0,0,0,0,0,0,0,0,0,0,0,0,0,0,0,0,0,0,0,0,0,0,0,0,0,0,0,0,0,0,0,0,0,0],"sum_hessian":[1.2725E4,8.3E3,4.425E3,8.069E3,2.31E2,1.348E3,3.077E3,5.38E3,2.689E3,1.07E2,1.24E2,2.89E2,1.059E3,1.929E3,1.148E3,2.459E3,2.921E3,1.711E3,9.78E2,8.9E1,1.8E1,1.02E2,2.2E1,2.44E2,4.5E1,4.25E2,6.34E2,1.6E3,3.29E2,9.2E2,2.28E2,4.56E2,2.003E3,7.16E2,2.205E3,1.01E3,7.01E2,3.45E2,6.33E2,3.4E1,5.5E1,1E1,8E0,9E0,9.3E1,1.4E1,8E0,4.2E1,2.02E2,1.1E1,3.4E1,4.08E2,1.7E1,3.75E2,2.59E2,5.37E2,1.063E3,1.23E2,2.06E2,6.41E2,2.79E2],"tree_param":{"num_deleted":"0","num_feature":"45","num_nodes":"61","size_leaf_vector":"1"}},{"base_weights":[7.6657007E-3,2.8889172E0,-6.1607914E0,3.3226786E0,-5.0314755E0,1.1309313E0,-7.27863E0,3.5669017E0,-6.108108E0,1.4905257E0,-6.814374E0,2.9569645E0,-4.7275453E0,-5.754861E0,-1.0002662E1,2.8565497E0,5.7621727E0,-3.5818067E0,-9.79697E0,-7.277561E-1,4.438923E0,-7.0249736E-1,-8.05637E0,9.825943E-1,9.919119E0,4.3192925E0,-8.018956E0,-4.456599E0,-8.849936E0,-1.0100087E1,1.667407E-1,2.979617E-1,4.868344E-2,4.3844387E-1,-1.2811726E-1,-1.1486024E-1,-5.422524E-1,-7.9908305E-1,-3.4072857E-2,4.9535105E-1,-4.5740455E-1,-4.663889E-1,2.1358062E-1,-8.588507E-1,-3.5588703E-1,-5.983201E-1,1.9853081E-1,1.0645587E0,1.78856E-1,-1.1811499E-1,4.950895E-1,-2.6404258E-2,-7.236429E-1,-4.1356766E-1,1.6886447E-1,-7.858207E-1,-5.785084E-1,-1.0441948E0,-7.18214E-1],"categories":[],"categories_nodes":[],"categories_segments":[],"categories_sizes":[],"default_left":[0,0,0,0,0,0,0,0,0,0,0,0,0,0,0,0,0,0,0,0,0,0,0,0,0,0,0,0,0,0,0,0,0,0,0,0,0,0,0,0,0,0,0,0,0,0,0,0,0,0,0,0,0,0,0,0,0,0,0],"id":28,"left_children":[1,3,5,7,9,11,13,15,17,19,21,23,25,27,29,31,33,35,37,-1,39,41,43,45,47,49,51,53,55,57,-1,-1,-1,-1,-1,-1,-1,-1,-1,-1,-1,-1,-1,-1,-1,-1,-1,-1,-1,-1,-1,-1,-1,-1,-1,-1,-1,-1,-1],"loss_changes":[2.243874E5,2.9726172E4,3.2844E4,1.9014672E4,5.3385703E3,5.9395977E3,1.39156875E4,1.2260555E4,1.613916E3,3.907156E3,2.6441074E3,5.6731494E3,4.283894E3,8.694031E3,1.6970234E3,1.5402391E4,2.2847031E3,9.488926E2,6.7928564E2,0E0,2.528413E3,1.5890599E3,2.8459023E3,5.387052E3,2.716998E3,6.8343475E2,1.307228E3,1.2277818E4,4.0566406E2,7.113906E2,0E0,0E0,0E0,0E0,0E0,0E0,0E0,0E0,0E0,0E0,0E0,0E0,0E0,0E0,0E0,0E0,0E0,0E0,0E0,0E0,0E0,0E0,0E0,0E0,0E0,0E0,0E0,0E0,0E0],"parents":[2147483647,0,0,1,1,2,2,3,3,4,4,5,5,6,6,7,7,8,8,9,9,10,10,11,11,12,12,13,13,14,14,15,15,16,16,17,17,18,18,20,20,21,21,22,22,23,23,24,24,25,25,26,26,27,27,28,28,29,29],"right_children":[2,4,6,8,10,12,14,16,18,20,22,24,26,28,30,32,34,36,38,-1,40,42,44,46,48,50,52,54,56,58,-1,-1,-1,-1,-1,-1,-1,-1,-1,-1,-1,-1,-1,-1,-1,-1,-1,-1,-1,-1,-1,-1,-1,-1,-1,-1,-1,-1,-1],"split_conditions":[5.9224E0,6.42968E2,1.589854E3,8.16062E3,1.591062E3,8.47E0,1.3811227E0,5.54206E2,4.75E1,4.7542E1,8.446E0,4.190692E2,4.74E1,1.19618E1,2.33517E1,8.14113E3,4.7388E1,8.17153E3,2.33452E1,-7.277561E-1,2.38819E3,2.38812E3,2.05767E2,3.878E1,4.0307567E-1,2.33129E1,4.742E1,7.05E0,6.06532E2,1.41198E3,1.667407E-1,2.979617E-1,4.868344E-2,4.3844387E-1,-1.2811726E-1,-1.1486024E-1,-5.422524E-1,-7.9908305E-1,-3.4072857E-2,4.9535105E-1,-4.5740455E-1,-4.663889E-1,2.1358062E-1,-8.588507E-1,-3.5588703E-1,-5.983201E-1,1.9853081E-1,1.0645587E0,1.78856E-1,-1.1811499E-1,4.950895E-1,-2.6404258E-2,-7.236429E-1,-4.1356766E-1,1.6886447E-1,-7.858207E-1,-5.785084E-1,-1.0441948E0,-7.18214E-1],"split_indices":[42,24,27,16,27,42,44,33,36,36,17,43,13,42,23,16,36,16,23,0,15,15,43,22,34,23,36,32,43,6,0,0,0,0,0,0,0,0,0,0,0,0,0,0,0,0,0,0,0,0,0,0,0,0,0,0,0,0,0],"split_type":[0,0,0,0,0,0,0,0,0,0,0,0,0,0,0,0,0,0,0,0,0,0,0,0,0,0,0,0,0,0,0,0,0,0,0,0,0,0,0,0,0,0,0,0,0,0,0,0,0,0,0,0,0,0,0,0,0,0,0],"sum_hessian":[1.2606E4,8.596E3,4.01E3,8.155E3,4.41E2,5.33E2,3.477E3,7.955E3,2E2,9.5E1,3.46E2,4.1E2,1.23E2,2.249E3,1.228E3,6.027E3,1.928E3,1.3E2,7E1,1.5E1,8E1,6.1E1,2.85E2,3.28E2,8.2E1,3.2E1,9.1E1,1.601E3,6.48E2,1.22E3,8E0,3.939E3,2.088E3,1.892E3,3.6E1,9.3E1,3.7E1,6.2E1,8E0,6.9E1,1.1E1,2.1E1,4E1,1.25E2,1.6E2,4.6E1,2.82E2,4.6E1,3.6E1,1E1,2.2E1,1.9E1,7.2E1,1.374E3,2.27E2,2.1E2,4.38E2,8.5E1,1.135E3],"tree_param":{"num_deleted":"0","num_feature":"45","num_nodes":"59","size_leaf_vector":"1"}},{"base_weights":[-2.0699508E-2,2.2694724E0,-6.65221E0,3.5284557E0,-8.3593506E-1,-8.510649E0,-4.278764E0,3.8205993E0,-9.1322005E-1,3.4242933E0,-2.8797905E0,-1.0535144E1,-7.3340034E0,-2.6741056E0,-8.933644E0,4.3289895E0,1.6568383E0,1.7253114E0,-7.4715014E0,-2.091124E0,4.632009E0,2.5225208E0,-4.531751E0,-6.8077815E-1,-8.7288547E-1,-6.503621E0,-7.98759E-1,5.076061E-1,-3.1419272E0,-6.884258E0,-8.709199E-1,5.0353956E-1,2.9340485E-1,2.1753567E-1,-2.4656352E-1,2.5456014E-1,-2.3739873E-1,4.227837E-2,-6.754533E-1,1.6970517E-1,-4.6641764E-1,7.3092556E-1,2.4933384E-1,3.6294135E-1,-3.5311142E-1,-4.1796765E-1,3.1887263E-1,-3.6892205E-1,-5.6367403E-1,-3.3811346E-1,8.6820945E-3,-7.061635E-1,-3.2448018E-1],"categories":[],"categories_nodes":[],"categories_segments":[],"categories_sizes":[],"default_left":[0,0,0,0,0,0,0,0,0,0,0,0,0,0,0,0,0,0,0,0,0,0,0,0,0,0,0,0,0,0,0,0,0,0,0,0,0,0,0,0,0,0,0,0,0,0,0,0,0,0,0,0,0],"id":29,"left_children":[1,3,5,7,9,11,13,15,17,19,21,23,25,27,29,31,33,35,37,39,41,43,45,-1,-1,47,-1,-1,49,51,-1,-1,-1,-1,-1,-1,-1,-1,-1,-1,-1,-1,-1,-1,-1,-1,-1,-1,-1,-1,-1,-1,-1],"loss_changes":[1.906652E5,3.6512246E4,1.38623125E4,8.652195E3,2.3601549E4,3.5353906E3,1.0484449E4,6.787422E3,7.3518364E3,5.9529824E3,1.643887E4,2.5265625E1,